{"learner":{"attributes":{"best_iteration":"118","best_score":"0.28208806052434204"},"feature_names":["start_number","post_position","distance","horse_history_starts","horse_history_win_rate","horse_history_place_rate","horse_shoes_front","horse_shoes_back","sex_encoded","horse_sulky_type_code_encoded","start_method_encoded","track_id_encoded","month","is_weekend"],"feature_types":["int","float","int","int","float","float","int","int","int","int","int","int","int","int"],"gradient_booster":{"model":{"cats":{"enc":[],"feature_segments":[],"sorted_idx":[]},"gbtree_model_param":{"num_parallel_tree":"1","num_trees":"169"},"iteration_indptr":[0,1,2,3,4,5,6,7,8,9,10,11,12,13,14,15,16,17,18,19,20,21,22,23,24,25,26,27,28,29,30,31,32,33,34,35,36,37,38,39,40,41,42,43,44,45,46,47,48,49,50,51,52,53,54,55,56,57,58,59,60,61,62,63,64,65,66,67,68,69,70,71,72,73,74,75,76,77,78,79,80,81,82,83,84,85,86,87,88,89,90,91,92,93,94,95,96,97,98,99,100,101,102,103,104,105,106,107,108,109,110,111,112,113,114,115,116,117,118,119,120,121,122,123,124,125,126,127,128,129,130,131,132,133,134,135,136,137,138,139,140,141,142,143,144,145,146,147,148,149,150,151,152,153,154,155,156,157,158,159,160,161,162,163,164,165,166,167,168,169],"tree_info":[0,0,0,0,0,0,0,0,0,0,0,0,0,0,0,0,0,0,0,0,0,0,0,0,0,0,0,0,0,0,0,0,0,0,0,0,0,0,0,0,0,0,0,0,0,0,0,0,0,0,0,0,0,0,0,0,0,0,0,0,0,0,0,0,0,0,0,0,0,0,0,0,0,0,0,0,0,0,0,0,0,0,0,0,0,0,0,0,0,0,0,0,0,0,0,0,0,0,0,0,0,0,0,0,0,0,0,0,0,0,0,0,0,0,0,0,0,0,0,0,0,0,0,0,0,0,0,0,0,0,0,0,0,0,0,0,0,0,0,0,0,0,0,0,0,0,0,0,0,0,0,0,0,0,0,0,0,0,0,0,0,0,0,0,0,0,0,0,0],"trees":[{"base_weights":[5.1929615E-3,-2.2277163E-1,7.1701044E-1,-7.638294E-2,-4.6305713E-1,3.3878478E-1,1.0224603E0,3.5466066E-1,-1.7544656E-1,-4.2441866E-1,-7.828529E-1,5.383182E-1,-1.4640601E-1,1.2038174E0,4.7138026E-1,4.4829097E-2,-1.6086858E-2,-2.9387921E-2,1.5159524E-2,-1.4106019E-2,-4.75506E-2,-9.261554E-2,-2.4963742E-2,5.970162E-2,6.253765E-3,4.4000316E-2,-2.0477412E-2,9.624585E-2,1.4718287E-1,1.4704472E-1,3.6728118E-2],"categories":[],"categories_nodes":[],"categories_segments":[],"categories_sizes":[],"default_left":[0,0,0,0,0,0,1,0,0,0,0,0,1,0,0,0,0,0,0,0,0,0,0,0,0,0,0,0,0,0,0],"id":0,"left_children":[1,3,5,7,9,11,13,15,17,19,21,23,25,27,29,-1,-1,-1,-1,-1,-1,-1,-1,-1,-1,-1,-1,-1,-1,-1,-1],"loss_changes":[9.3835254E2,1.5403111E2,1.6170795E2,1.1633605E2,2.0154633E1,6.0895546E1,7.693982E1,2.4650269E1,8.582929E1,2.1378479E1,1.3335182E1,1.240007E1,6.3827314E0,3.6286255E1,1.9601822E1,0E0,0E0,0E0,0E0,0E0,0E0,0E0,0E0,0E0,0E0,0E0,0E0,0E0,0E0,0E0,0E0],"parents":[2147483647,0,0,1,1,2,2,3,3,4,4,5,5,6,6,7,7,8,8,9,9,10,10,11,11,12,12,13,13,14,14],"right_children":[2,4,6,8,10,12,14,16,18,20,22,24,26,28,30,-1,-1,-1,-1,-1,-1,-1,-1,-1,-1,-1,-1,-1,-1,-1,-1],"split_conditions":[4.5E-1,8E0,6E-1,1E0,2E0,9E0,8E0,2E0,2.7586207E-1,1E0,1E0,2E0,3E0,8.4615386E-1,2E0,4.4829097E-2,-1.6086858E-2,-2.9387921E-2,1.5159524E-2,-1.4106019E-2,-4.75506E-2,-9.261554E-2,-2.4963742E-2,5.970162E-2,6.253765E-3,4.4000316E-2,-2.0477412E-2,9.624585E-2,1.4718287E-1,1.4704472E-1,3.6728118E-2],"split_indices":[5,0,5,3,9,0,1,9,5,3,6,9,1,5,11,0,0,0,0,0,0,0,0,0,0,0,0,0,0,0,0],"split_type":[0,0,0,0,0,0,0,0,0,0,0,0,0,0,0,0,0,0,0,0,0,0,0,0,0,0,0,0,0,0,0],"sum_hessian":[5.7807065E3,4.3789907E3,1.4017157E3,2.7219934E3,1.6569973E3,6.271954E2,7.745204E2,5.0818948E2,2.213804E3,1.4804528E3,1.765445E2,4.4434863E2,1.8284673E2,5.81852E2,1.926684E2,4.3018906E2,7.800041E1,1.6253224E3,5.884816E2,2.2671684E2,1.253736E3,1.3856737E2,3.7977116E1,3.9532214E2,4.9026493E1,1.5960211E1,1.6688652E2,3.085641E2,2.7328793E2,1.6942377E1,1.7572601E2],"tree_param":{"num_deleted":"0","num_feature":"14","num_nodes":"31","size_leaf_vector":"1"}},{"base_weights":[-6.246455E-3,-1.4658672E-1,1.1574731E0,-2.5728205E-1,2.1449487E-1,8.6657387E-1,1.8797653E0,-3.1457493E-1,4.3565735E-1,3.7345526E-1,-5.6718294E-2,1.1154926E0,2.4095125E-1,1.2746528E0,2.0852537E0,-1.9594692E-2,-5.1424533E-2,7.046815E-2,7.2469125E-3,2.9552076E-2,8.804956E-2,6.607577E-3,-2.5601378E-2,1.2984364E-1,5.3895175E-2,6.002335E-2,-3.4911748E-2,1.2900409E-2,1.5284628E-1,3.1531978E-1,1.9360816E-1],"categories":[],"categories_nodes":[],"categories_segments":[],"categories_sizes":[],"default_left":[0,0,0,0,0,0,0,0,0,0,0,0,0,0,0,0,0,0,0,0,0,0,0,0,0,0,0,0,0,0,0],"id":1,"left_children":[1,3,5,7,9,11,13,15,17,19,21,23,25,27,29,-1,-1,-1,-1,-1,-1,-1,-1,-1,-1,-1,-1,-1,-1,-1,-1],"loss_changes":[9.485425E2,2.0721632E2,1.2970203E2,1.5763977E2,5.247301E1,6.941113E1,1.955011E1,8.670758E1,2.9591827E1,3.0056015E1,1.1040401E1,3.3032257E1,2.7479286E1,1.3716049E1,1.48845215E1,0E0,0E0,0E0,0E0,0E0,0E0,0E0,0E0,0E0,0E0,0E0,0E0,0E0,0E0,0E0,0E0],"parents":[2147483647,0,0,1,1,2,2,3,3,4,4,5,5,6,6,7,7,8,8,9,9,10,10,11,11,12,12,13,13,14,14],"right_children":[2,4,6,8,10,12,14,16,18,20,22,24,26,28,30,-1,-1,-1,-1,-1,-1,-1,-1,-1,-1,-1,-1,-1,-1,-1,-1],"split_conditions":[3.125E-1,3.9130434E-1,5.714286E-1,2E0,8E0,1E0,1E0,8E0,7E0,2E0,2.1E1,8E0,8E0,6E0,2E0,-1.9594692E-2,-5.1424533E-2,7.046815E-2,7.2469125E-3,2.9552076E-2,8.804956E-2,6.607577E-3,-2.5601378E-2,1.2984364E-1,5.3895175E-2,6.002335E-2,-3.4911748E-2,1.2900409E-2,1.5284628E-1,3.1531978E-1,1.9360816E-1],"split_indices":[4,5,4,8,0,13,6,0,0,8,11,1,0,11,11,0,0,0,0,0,0,0,0,0,0,0,0,0,0,0,0],"split_type":[0,0,0,0,0,0,0,0,0,0,0,0,0,0,0,0,0,0,0,0,0,0,0,0,0,0,0,0,0,0,0],"sum_hessian":[5.805955E3,5.18191E3,6.240451E2,3.9662732E3,1.2156368E3,4.4644254E2,1.7760255E2,3.6638857E3,3.023875E2,7.661895E2,4.4944736E2,3.1881244E2,1.2763007E2,4.684846E1,1.3075409E2,2.2996191E3,1.3642665E3,1.7317299E2,1.2921452E2,6.6548425E2,1.00705246E2,2.7851276E2,1.709346E2,2.4106677E2,7.7745674E1,7.931772E1,4.831236E1,8.770117E0,3.8078346E1,1.3557315E1,1.17196785E2],"tree_param":{"num_deleted":"0","num_feature":"14","num_nodes":"31","size_leaf_vector":"1"}},{"base_weights":[-2.3992406E-3,-1.5879467E-1,7.7070236E-1,-2.1388789E-1,4.0884224E-1,6.327771E-1,1.2835417E0,-3.1248352E-1,2.0460676E-2,8.511748E-1,1.4247328E-1,3.8507023E-1,7.7632666E-1,1.3756108E0,3.456375E-1,6.561926E-3,-4.1691717E-2,3.7955724E-2,-1.9249016E-3,9.6478455E-2,-4.5022466E-3,4.9320195E-2,-4.270774E-3,5.7440903E-2,6.222974E-3,8.536513E-2,3.5527553E-3,1.2112124E-1,1.8331335E-1,-9.28168E-3,1.9870631E-1],"categories":[],"categories_nodes":[],"categories_segments":[],"categories_sizes":[],"default_left":[0,0,0,0,0,0,0,0,0,0,0,0,0,0,0,0,0,0,0,0,0,0,0,0,0,0,0,0,0,0,0],"id":2,"left_children":[1,3,5,7,9,11,13,15,17,19,21,23,25,27,29,-1,-1,-1,-1,-1,-1,-1,-1,-1,-1,-1,-1,-1,-1,-1,-1],"loss_changes":[7.0190857E2,1.510871E2,6.827881E1,1.017162E2,5.025048E1,2.7142365E1,1.7317322E1,1.22374146E2,1.8608868E1,1.638337E1,1.7429436E1,1.739299E1,2.7900513E1,1.1867279E1,1.4401419E1,0E0,0E0,0E0,0E0,0E0,0E0,0E0,0E0,0E0,0E0,0E0,0E0,0E0,0E0,0E0,0E0],"parents":[2147483647,0,0,1,1,2,2,3,3,4,4,5,5,6,6,7,7,8,8,9,9,10,10,11,11,12,12,13,13,14,14],"right_children":[2,4,6,8,10,12,14,16,18,20,22,24,26,28,30,-1,-1,-1,-1,-1,-1,-1,-1,-1,-1,-1,-1,-1,-1,-1,-1],"split_conditions":[2.2222222E-1,2E0,5.714286E-1,3.0769232E-1,2E0,3.0769232E-1,2E0,1E0,2E0,2E0,7E0,3.3E1,2E0,2E0,1E0,6.561926E-3,-4.1691717E-2,3.7955724E-2,-1.9249016E-3,9.6478455E-2,-4.5022466E-3,4.9320195E-2,-4.270774E-3,5.7440903E-2,6.222974E-3,8.536513E-2,3.5527553E-3,1.2112124E-1,1.8331335E-1,-9.28168E-3,1.9870631E-1],"split_indices":[4,8,4,5,3,4,9,3,3,9,12,11,9,8,7,0,0,0,0,0,0,0,0,0,0,0,0,0,0,0,0],"split_type":[0,0,0,0,0,0,0,0,0,0,0,0,0,0,0,0,0,0,0,0,0,0,0,0,0,0,0,0,0,0,0],"sum_hessian":[5.803224E3,4.8274453E3,9.7577875E2,4.4009272E3,4.2651813E2,7.707293E2,2.0504945E2,3.0974343E3,1.3034927E3,1.5948375E2,2.6703436E2,2.8412692E2,4.866024E2,1.8629514E2,1.8754316E1,6.7044714E2,2.4269873E3,1.2893842E2,1.1745542E3,1.4147289E2,1.8010864E1,9.1697685E1,1.7533669E2,1.7860173E2,1.0552517E2,4.4047345E2,4.6128956E1,1.3973315E2,4.656199E1,1.5545331E1,3.2089841E0],"tree_param":{"num_deleted":"0","num_feature":"14","num_nodes":"31","size_leaf_vector":"1"}},{"base_weights":[-9.47944E-3,-1.3406812E-1,7.5160563E-1,-2.2446927E-1,1.5592602E-1,8.959222E-1,2.768882E-1,1.4419374E-1,-3.1967032E-1,2.3845948E-1,-1.6471982E-1,6.788313E-1,1.0881166E0,4.3206187E-3,5.519246E-1,7.4780725E-2,6.659557E-3,3.6502094E-3,-3.697002E-2,1.6525516E-2,4.662163E-2,-1.9900702E-2,8.148152E-2,6.0541894E-2,1.1737628E-1,1.24358766E-1,7.14748E-2,1.8146066E-2,-4.3111335E-2,6.460357E-2,-5.8522712E-2],"categories":[],"categories_nodes":[],"categories_segments":[],"categories_sizes":[],"default_left":[0,0,1,0,0,0,0,0,0,0,0,0,0,0,0,0,0,0,0,0,0,0,0,0,0,0,0,0,0,0,0],"id":3,"left_children":[1,3,5,7,9,11,13,15,17,19,21,23,25,27,29,-1,-1,-1,-1,-1,-1,-1,-1,-1,-1,-1,-1,-1,-1,-1,-1],"loss_changes":[5.4909344E2,1.3048721E2,5.5559326E1,1.3320206E2,3.1350456E1,2.5306763E1,1.4342711E1,3.6453735E1,5.3749176E1,1.5618191E1,8.316458E0,1.0036697E1,1.8234802E1,7.569104E0,1.0570322E1,0E0,0E0,0E0,0E0,0E0,0E0,0E0,0E0,0E0,0E0,0E0,0E0,0E0,0E0,0E0,0E0],"parents":[2147483647,0,0,1,1,2,2,3,3,4,4,5,5,6,6,7,7,8,8,9,9,10,10,11,11,12,12,13,13,14,14],"right_children":[2,4,6,8,10,12,14,16,18,20,22,24,26,28,30,-1,-1,-1,-1,-1,-1,-1,-1,-1,-1,-1,-1,-1,-1,-1,-1],"split_conditions":[2.6666668E-1,3.888889E-1,8E0,1E0,1E1,4.5454547E-1,4.6666667E-1,1E0,1E0,7.058824E-1,1.3E1,1.1E1,1E0,1E0,2E0,7.4780725E-2,6.659557E-3,3.6502094E-3,-3.697002E-2,1.6525516E-2,4.662163E-2,-1.9900702E-2,8.148152E-2,6.0541894E-2,1.1737628E-1,1.24358766E-1,7.14748E-2,1.8146066E-2,-4.3111335E-2,6.460357E-2,-5.8522712E-2],"split_indices":[4,5,1,3,0,4,4,9,9,5,1,3,13,13,9,0,0,0,0,0,0,0,0,0,0,0,0,0,0,0,0],"split_type":[0,0,0,0,0,0,0,0,0,0,0,0,0,0,0,0,0,0,0,0,0,0,0,0,0,0,0,0,0,0,0],"sum_hessian":[5.7886826E3,4.9750903E3,8.135922E2,3.7929297E3,1.1821608E3,6.2323755E2,1.9035468E2,7.783355E2,3.0145942E3,9.4036847E2,2.4179228E2,2.9479147E2,3.284461E2,9.6116585E1,9.423809E1,8.767789E1,6.906576E2,3.713256E2,2.6432686E3,7.1294366E2,2.274248E2,2.3438481E2,7.407466E0,2.5864966E2,3.6141827E1,2.3024234E2,9.820376E1,6.873684E1,2.737975E1,8.7433914E1,6.80418E0],"tree_param":{"num_deleted":"0","num_feature":"14","num_nodes":"31","size_leaf_vector":"1"}},{"base_weights":[-4.437243E-3,-1.6955091E-1,3.8714293E-1,-2.1699722E-1,3.2622135E-1,5.0126386E-1,6.289797E-2,-1.2713419E-1,-4.4272712E-1,5.9447205E-1,-3.4829386E-2,3.618438E-1,7.1992725E-1,-9.1124E-2,1.8936624E-1,2.5826415E-2,-1.855598E-2,-5.4274853E-2,-2.9959265E-2,7.854568E-2,1.4166589E-2,3.95291E-3,-6.263385E-2,5.334563E-2,2.626287E-2,6.086394E-2,1.14547335E-1,5.9800085E-2,-1.6296223E-2,2.978512E-2,-5.764473E-3],"categories":[],"categories_nodes":[],"categories_segments":[],"categories_sizes":[],"default_left":[0,0,0,0,0,0,0,0,0,0,0,0,0,1,0,0,0,0,0,0,0,0,0,0,0,0,0,0,0,0,0],"id":4,"left_children":[1,3,5,7,9,11,13,15,17,19,21,23,25,27,29,-1,-1,-1,-1,-1,-1,-1,-1,-1,-1,-1,-1,-1,-1,-1,-1],"loss_changes":[3.7491888E2,9.601539E1,6.3609863E1,7.54675E1,3.4563663E1,3.8517944E1,8.7610855E0,6.0043232E1,1.5009277E1,1.7589355E1,6.7532053E0,1.3119469E1,2.270935E1,1.0150575E1,6.6311073E0,0E0,0E0,0E0,0E0,0E0,0E0,0E0,0E0,0E0,0E0,0E0,0E0,0E0,0E0,0E0,0E0],"parents":[2147483647,0,0,1,1,2,2,3,3,4,4,5,5,6,6,7,7,8,8,9,9,10,10,11,11,12,12,13,13,14,14],"right_children":[2,4,6,8,10,12,14,16,18,20,22,24,26,28,30,-1,-1,-1,-1,-1,-1,-1,-1,-1,-1,-1,-1,-1,-1,-1,-1],"split_conditions":[4.4444445E-1,2E0,9E0,9E0,4E0,7.058824E-1,5.9090906E-1,1E0,1.5789473E-1,8E0,1.3E1,1E0,2E0,3E0,1E0,2.5826415E-2,-1.855598E-2,-5.4274853E-2,-2.9959265E-2,7.854568E-2,1.4166589E-2,3.95291E-3,-6.263385E-2,5.334563E-2,2.626287E-2,6.086394E-2,1.14547335E-1,5.9800085E-2,-1.6296223E-2,2.978512E-2,-5.764473E-3],"split_indices":[5,8,0,0,3,5,5,9,5,0,3,7,8,1,13,0,0,0,0,0,0,0,0,0,0,0,0,0,0,0,0],"split_type":[0,0,0,0,0,0,0,0,0,0,0,0,0,0,0,0,0,0,0,0,0,0,0,0,0,0,0,0,0,0,0],"sum_hessian":[5.796725E3,4.077833E3,1.7188918E3,3.7221763E3,3.5565677E2,1.2710044E3,4.4788742E2,2.6634292E3,1.0587472E3,2.0368095E2,1.5197581E2,7.7775903E2,4.9324536E2,2.0207082E2,2.4581659E2,3.5016727E2,2.3132617E3,6.215915E2,4.3715573E2,1.4274095E2,6.093999E1,1.358334E2,1.6142416E1,2.8332114E2,4.9443793E2,3.9292E2,1.0032534E2,1.8384922E1,1.8368588E2,1.7065894E2,7.515766E1],"tree_param":{"num_deleted":"0","num_feature":"14","num_nodes":"31","size_leaf_vector":"1"}},{"base_weights":[-1.0863381E-2,-1.4134727E-1,4.3592033E-1,9.205893E-2,-2.4221852E-1,5.573792E-1,8.417954E-2,1.3106797E-2,6.0388905E-1,-4.060775E-1,-1.7455399E-2,3.8798478E-1,7.5058407E-1,1.0334426E0,3.301962E-2,1.1434688E-2,-2.9611612E-2,8.462711E-2,1.8776491E-2,-1.28985485E-2,-4.4225853E-2,6.3566687E-3,-2.2215376E-2,5.5174984E-2,1.1228483E-2,8.22975E-2,6.143596E-3,2.0176057E-2,1.3762535E-1,-6.4446963E-3,4.8118845E-2],"categories":[],"categories_nodes":[],"categories_segments":[],"categories_sizes":[],"default_left":[0,0,0,0,0,0,0,0,0,0,0,0,0,0,0,0,0,0,0,0,0,0,0,0,0,0,0,0,0,0,0],"id":5,"left_children":[1,3,5,7,9,11,13,15,17,19,21,23,25,27,29,-1,-1,-1,-1,-1,-1,-1,-1,-1,-1,-1,-1,-1,-1,-1,-1],"loss_changes":[3.3691467E2,1.0532984E2,5.57614E1,5.4563198E1,1.150249E2,3.1482178E1,1.6306606E1,3.6692383E1,1.8041428E1,1.8052826E1,2.1873016E1,2.3387321E1,2.25224E1,4.6187553E0,1.4022318E1,0E0,0E0,0E0,0E0,0E0,0E0,0E0,0E0,0E0,0E0,0E0,0E0,0E0,0E0,0E0,0E0],"parents":[2147483647,0,0,1,1,2,2,3,3,4,4,5,5,6,6,7,7,8,8,9,9,10,10,11,11,12,12,13,13,14,14],"right_children":[2,4,6,8,10,12,14,16,18,20,22,24,26,28,30,-1,-1,-1,-1,-1,-1,-1,-1,-1,-1,-1,-1,-1,-1,-1,-1],"split_conditions":[1.764706E-1,2E0,9E0,2E0,2.7272728E-1,3.5E-1,2E0,9E0,7E0,1E0,9E0,3.3E1,2E0,3.888889E-1,2E0,1.1434688E-2,-2.9611612E-2,8.462711E-2,1.8776491E-2,-1.28985485E-2,-4.4225853E-2,6.3566687E-3,-2.2215376E-2,5.5174984E-2,1.1228483E-2,8.22975E-2,6.143596E-3,2.0176057E-2,1.3762535E-1,-6.4446963E-3,4.8118845E-2],"split_indices":[4,3,0,8,5,4,12,0,0,9,0,11,9,4,8,0,0,0,0,0,0,0,0,0,0,0,0,0,0,0,0],"split_type":[0,0,0,0,0,0,0,0,0,0,0,0,0,0,0,0,0,0,0,0,0,0,0,0,0,0,0,0,0,0,0],"sum_hessian":[5.777115E3,4.4718022E3,1.3053132E3,1.3494331E3,3.122369E3,9.6983655E2,3.3547675E2,1.1699835E3,1.7944966E2,1.8053839E3,1.316985E3,5.1836383E2,4.514727E2,1.617384E1,3.1930292E2,8.8188354E2,2.880999E2,1.1274488E2,6.670479E1,2.0903752E2,1.5963463E3,9.4401996E2,3.7296506E2,3.245693E2,1.9379456E2,4.0838058E2,4.309212E1,5.184485E0,1.0989355E1,2.6296924E2,5.6333664E1],"tree_param":{"num_deleted":"0","num_feature":"14","num_nodes":"31","size_leaf_vector":"1"}},{"base_weights":[-1.2965654E-3,-1.2380781E-1,4.1715068E-1,-3.67441E-2,-3.6208147E-1,3.2355654E-1,7.7524334E-1,-8.6861655E-2,3.9628726E-1,-4.041153E-1,5.8948997E-2,3.711502E-1,-1.5172511E-1,9.778476E-1,4.8023573E-1,2.2913856E-2,-1.3834506E-2,4.858592E-2,-4.2931866E-2,-3.6664687E-2,-7.373075E-2,-1.7678082E-2,2.363255E-2,4.73424E-2,8.226575E-3,-4.3096606E-2,1.1016077E-1,8.55174E-2,1.2213371E-1,5.6599922E-2,-1.632571E-2],"categories":[],"categories_nodes":[],"categories_segments":[],"categories_sizes":[],"default_left":[0,0,0,0,0,0,0,0,0,0,0,0,0,0,0,0,0,0,0,0,0,0,0,0,0,0,0,0,0,0,0],"id":6,"left_children":[1,3,5,7,9,11,13,15,17,19,21,23,25,27,29,-1,-1,-1,-1,-1,-1,-1,-1,-1,-1,-1,-1,-1,-1,-1,-1],"loss_changes":[2.9548868E2,9.248065E1,4.3499405E1,7.0926796E1,2.1138016E1,2.3504776E1,1.5654587E1,4.7675323E1,2.527975E1,1.3273651E1,4.6065187E0,2.7808746E1,3.3745728E1,3.7038727E0,6.2626286E0,0E0,0E0,0E0,0E0,0E0,0E0,0E0,0E0,0E0,0E0,0E0,0E0,0E0,0E0,0E0,0E0],"parents":[2147483647,0,0,1,1,2,2,3,3,4,4,5,5,6,6,7,7,8,8,9,9,10,10,11,11,12,12,13,13,14,14],"right_children":[2,4,6,8,10,12,14,16,18,20,22,24,26,28,30,-1,-1,-1,-1,-1,-1,-1,-1,-1,-1,-1,-1,-1,-1,-1,-1],"split_conditions":[2E-1,9E0,5.4545456E-1,2E0,5.217391E-1,2E0,7E0,1E0,2E0,2E0,6E0,1E0,1E0,1E0,2.64E3,2.2913856E-2,-1.3834506E-2,4.858592E-2,-4.2931866E-2,-3.6664687E-2,-7.373075E-2,-1.7678082E-2,2.363255E-2,4.73424E-2,8.226575E-3,-4.3096606E-2,1.1016077E-1,8.55174E-2,1.2213371E-1,5.6599922E-2,-1.632571E-2],"split_indices":[4,0,4,8,5,9,0,9,9,9,12,13,7,10,2,0,0,0,0,0,0,0,0,0,0,0,0,0,0,0,0],"split_type":[0,0,0,0,0,0,0,0,0,0,0,0,0,0,0,0,0,0,0,0,0,0,0,0,0,0,0,0,0,0,0],"sum_hessian":[5.7619956E3,4.4576167E3,1.3043784E3,3.265557E3,1.1920599E3,1.035607E3,2.6877145E2,2.9275337E3,3.380233E2,1.0838894E3,1.0817054E2,9.415422E2,9.406486E1,1.5796806E2,1.1080338E2,4.096556E2,2.5178782E3,3.0531088E2,3.2712395E1,9.762119E2,1.0767746E2,4.64469E1,6.172364E1,6.94891E2,2.4665115E2,7.746246E1,1.6602392E1,1.0804538E2,4.992268E1,9.787872E1,1.2924664E1],"tree_param":{"num_deleted":"0","num_feature":"14","num_nodes":"31","size_leaf_vector":"1"}},{"base_weights":[3.5015692E-3,-9.377209E-2,4.9107105E-1,-1.0786026E-4,-2.7018178E-1,6.110285E-1,5.8793694E-2,-4.838884E-2,3.83567E-1,-3.639124E-1,-2.9008096E-2,6.5518165E-1,1.682031E-1,-6.974423E-2,5.464632E-1,-1.4046773E-2,1.252751E-2,5.7358034E-2,-8.974715E-3,-7.5295838E-3,-4.3328073E-2,-1.5386793E-2,1.1701078E-2,4.6508994E-2,7.576774E-2,-1.407765E-2,1.277772E-1,-1.2710596E-3,-8.366134E-2,-8.5516244E-2,6.852265E-2],"categories":[],"categories_nodes":[],"categories_segments":[],"categories_sizes":[],"default_left":[0,0,1,0,0,0,0,0,0,0,0,0,0,0,0,0,0,0,0,0,0,0,0,0,0,0,0,0,0,0,0],"id":7,"left_children":[1,3,5,7,9,11,13,15,17,19,21,23,25,27,29,-1,-1,-1,-1,-1,-1,-1,-1,-1,-1,-1,-1,-1,-1,-1,-1],"loss_changes":[2.7360593E2,7.94675E1,4.9719315E1,5.823036E1,3.769419E1,1.4572968E1,1.3172469E1,4.466574E1,3.165099E1,2.4013489E1,8.548746E0,1.2945984E1,2.3984404E1,7.2809076E0,9.108854E0,0E0,0E0,0E0,0E0,0E0,0E0,0E0,0E0,0E0,0E0,0E0,0E0,0E0,0E0,0E0,0E0],"parents":[2147483647,0,0,1,1,2,2,3,3,4,4,5,5,6,6,7,7,8,8,9,9,10,10,11,11,12,12,13,13,14,14],"right_children":[2,4,6,8,10,12,14,16,18,20,22,24,26,28,30,-1,-1,-1,-1,-1,-1,-1,-1,-1,-1,-1,-1,-1,-1,-1,-1],"split_conditions":[2.6666668E-1,8E0,8E0,2E0,3.6E-1,2E0,2E0,3E-1,6E0,1E0,8E-2,5.652174E-1,1E0,2E0,3.0769232E-1,-1.4046773E-2,1.252751E-2,5.7358034E-2,-8.974715E-3,-7.5295838E-3,-4.3328073E-2,-1.5386793E-2,1.1701078E-2,4.6508994E-2,7.576774E-2,-1.407765E-2,1.277772E-1,-1.2710596E-3,-8.366134E-2,-8.5516244E-2,6.852265E-2],"split_indices":[4,0,1,8,5,9,8,5,3,3,4,5,7,9,4,0,0,0,0,0,0,0,0,0,0,0,0,0,0,0,0],"split_type":[0,0,0,0,0,0,0,0,0,0,0,0,0,0,0,0,0,0,0,0,0,0,0,0,0,0,0,0,0,0,0],"sum_hessian":[5.766938E3,4.808429E3,9.585089E2,3.1414734E3,1.6669559E3,7.499762E2,2.0853276E2,2.7911177E3,3.5035556E2,1.2000537E3,4.6690216E2,6.815417E2,6.843451E1,1.6571204E2,4.2820717E1,1.8241309E3,9.6698694E2,2.4984337E2,1.00512184E2,2.3294394E2,9.671098E2,2.5165758E2,2.1524458E2,2.4068944E2,4.4085223E2,5.4211464E1,1.42230425E1,1.5518704E2,1.0525003E1,3.3923535E0,3.9428364E1],"tree_param":{"num_deleted":"0","num_feature":"14","num_nodes":"31","size_leaf_vector":"1"}},{"base_weights":[6.118509E-4,-1.0668839E-1,3.3991182E-1,1.11620665E-1,-2.0316187E-1,4.189827E-1,5.9131715E-2,5.098004E-2,4.60985E-1,-3.3875567E-1,-3.1223271E-2,2.7677637E-1,5.4874665E-1,2.8954494E-1,-8.095128E-2,1.3798025E-2,-1.6650762E-2,2.0535035E-2,5.4004487E-2,-2.7614115E-2,-5.1778264E-2,6.2740967E-3,-1.6750906E-2,4.099539E-2,3.00172E-3,4.1617706E-2,7.429527E-2,1.4471741E-2,8.733698E-2,-2.475887E-2,2.2034459E-2],"categories":[],"categories_nodes":[],"categories_segments":[],"categories_sizes":[],"default_left":[0,0,1,0,0,0,0,1,0,0,1,0,0,0,0,0,0,0,0,0,0,0,0,0,0,0,0,0,0,0,0],"id":8,"left_children":[1,3,5,7,9,11,13,15,17,19,21,23,25,27,29,-1,-1,-1,-1,-1,-1,-1,-1,-1,-1,-1,-1,-1,-1,-1,-1],"loss_changes":[2.1005737E2,9.234325E1,3.0751633E1,2.845171E1,7.087269E1,1.9804688E1,9.892565E0,2.1714756E1,3.9042587E0,1.8910782E1,1.7191545E1,1.7011013E1,1.4223099E1,9.66718E0,9.640973E0,0E0,0E0,0E0,0E0,0E0,0E0,0E0,0E0,0E0,0E0,0E0,0E0,0E0,0E0,0E0,0E0],"parents":[2147483647,0,0,1,1,2,2,3,3,4,4,5,5,6,6,7,7,8,8,9,9,10,10,11,11,12,12,13,13,14,14],"right_children":[2,4,6,8,10,12,14,16,18,20,22,24,26,28,30,-1,-1,-1,-1,-1,-1,-1,-1,-1,-1,-1,-1,-1,-1,-1,-1],"split_conditions":[1.904762E-1,2E0,8E0,2E0,2.6923078E-1,5.9090906E-1,1.1E1,7E0,1E0,1E1,6E0,3.3E1,8E0,2E0,4.6666667E-1,1.3798025E-2,-1.6650762E-2,2.0535035E-2,5.4004487E-2,-2.7614115E-2,-5.1778264E-2,6.2740967E-3,-1.6750906E-2,4.099539E-2,3.00172E-3,4.1617706E-2,7.429527E-2,1.4471741E-2,8.733698E-2,-2.475887E-2,2.2034459E-2],"split_indices":[4,3,1,8,5,5,11,1,6,3,1,11,12,8,4,0,0,0,0,0,0,0,0,0,0,0,0,0,0,0,0],"split_type":[0,0,0,0,0,0,0,0,0,0,0,0,0,0,0,0,0,0,0,0,0,0,0,0,0,0,0,0,0,0,0],"sum_hessian":[5.7677065E3,4.382477E3,1.3852292E3,1.3430786E3,3.0393987E3,1.0804656E3,3.0476364E2,1.1454108E3,1.9766782E2,1.698758E3,1.3406405E3,5.170123E2,5.634532E2,1.1482639E2,1.8993726E2,8.183978E2,3.2701297E2,4.754184E1,1.5012598E2,1.2604568E3,4.3830118E2,7.938492E2,5.467914E2,3.3535678E2,1.8165558E2,3.367338E2,2.267194E2,9.300326E1,2.1823137E1,1.2241279E2,6.752447E1],"tree_param":{"num_deleted":"0","num_feature":"14","num_nodes":"31","size_leaf_vector":"1"}},{"base_weights":[1.4311292E-3,-1.2029176E-1,2.3526898E-1,1.4354227E-1,-1.8931542E-1,1.1043838E-1,4.1004118E-1,2.2088031E-1,-3.552003E-1,-1.480801E-1,-5.4165435E-1,1.8531649E-1,-5.993546E-2,5.0408715E-1,1.8250875E-1,1.5421301E-2,5.626318E-2,-7.9427E-2,3.157763E-2,8.7132165E-3,-2.2217741E-2,-6.5117456E-2,1.931945E-2,1.257234E-2,4.1669764E-2,1.24113625E-2,-2.6084041E-2,4.227696E-2,8.065844E-2,3.286673E-2,-5.100813E-3],"categories":[],"categories_nodes":[],"categories_segments":[],"categories_sizes":[],"default_left":[0,0,0,0,0,1,0,0,0,0,0,0,0,0,1,0,0,0,0,0,0,0,0,0,0,0,0,0,0,0,0],"id":9,"left_children":[1,3,5,7,9,11,13,15,17,19,21,23,25,27,29,-1,-1,-1,-1,-1,-1,-1,-1,-1,-1,-1,-1,-1,-1,-1,-1],"loss_changes":[1.6375833E2,6.893158E1,4.2924965E1,3.0364452E1,4.3499374E1,1.4686026E1,1.746045E1,1.54150505E1,3.1418152E1,4.684371E1,2.5387794E1,1.0969732E1,1.3046588E1,1.3921371E1,8.257746E0,0E0,0E0,0E0,0E0,0E0,0E0,0E0,0E0,0E0,0E0,0E0,0E0,0E0,0E0,0E0,0E0],"parents":[2147483647,0,0,1,1,2,2,3,3,4,4,5,5,6,6,7,7,8,8,9,9,10,10,11,11,12,12,13,13,14,14],"right_children":[2,4,6,8,10,12,14,16,18,20,22,24,26,28,30,-1,-1,-1,-1,-1,-1,-1,-1,-1,-1,-1,-1,-1,-1,-1,-1],"split_conditions":[4.2857143E-1,1E0,3.0769232E-1,2E0,2E0,7E0,1E0,2E0,3.000001E1,1E0,3.000001E1,9E-1,1.9E1,2E0,6E0,1.5421301E-2,5.626318E-2,-7.9427E-2,3.157763E-2,8.7132165E-3,-2.2217741E-2,-6.5117456E-2,1.931945E-2,1.257234E-2,4.1669764E-2,1.24113625E-2,-2.6084041E-2,4.227696E-2,8.065844E-2,3.286673E-2,-5.100813E-3],"split_indices":[5,3,4,9,9,1,13,8,1,7,1,5,11,8,1,0,0,0,0,0,0,0,0,0,0,0,0,0,0,0,0],"split_type":[0,0,0,0,0,0,0,0,0,0,0,0,0,0,0,0,0,0,0,0,0,0,0,0,0,0,0,0,0,0,0],"sum_hessian":[5.751297E3,3.7827134E3,1.9685834E3,7.841855E2,2.998528E3,1.1493179E3,8.1926544E2,6.79392E2,1.047935E2,2.6856394E3,3.128885E2,7.983576E2,3.5096027E2,5.7881036E2,2.4045506E2,5.6970734E2,1.0968465E2,6.3232227E1,4.1561275E1,6.433219E2,2.0423175E3,2.724039E2,4.0484585E1,6.360769E2,1.6228069E2,1.8336331E2,1.6759697E2,4.5806946E2,1.2074091E2,1.476397E2,9.281537E1],"tree_param":{"num_deleted":"0","num_feature":"14","num_nodes":"31","size_leaf_vector":"1"}},{"base_weights":[-3.6117295E-3,-9.211033E-2,2.51487E-1,-2.149438E-2,-2.9552123E-1,2.9077384E-1,-1.8006802E-1,9.38273E-2,-1.4210065E-1,-2.5450912E-1,-6.7959315E-1,3.720924E-1,7.397872E-2,-4.1771206E-1,6.329444E-1,4.6815004E-2,3.7872063E-3,-2.17208E-2,7.913266E-3,-1.0310211E-3,-3.224015E-2,-8.8767104E-2,8.277322E-3,3.0841354E-2,6.45452E-2,-3.3761256E-3,3.7405454E-2,-8.107193E-2,3.338076E-2,8.666365E-2,-1.5871687E-2],"categories":[],"categories_nodes":[],"categories_segments":[],"categories_sizes":[],"default_left":[0,0,0,0,0,0,0,0,0,0,0,0,0,0,0,0,0,0,0,0,0,0,0,0,0,0,0,0,0,0,0],"id":10,"left_children":[1,3,5,7,9,11,13,15,17,19,21,23,25,27,29,-1,-1,-1,-1,-1,-1,-1,-1,-1,-1,-1,-1,-1,-1,-1,-1],"loss_changes":[1.2952277E2,6.1177086E1,2.5106102E1,4.4004642E1,1.7115662E1,2.3856743E1,2.42061E1,3.3860855E1,2.5713E1,1.6464554E1,1.6776684E1,1.6946823E1,1.2000793E1,2.876954E1,5.3964834E0,0E0,0E0,0E0,0E0,0E0,0E0,0E0,0E0,0E0,0E0,0E0,0E0,0E0,0E0,0E0,0E0],"parents":[2147483647,0,0,1,1,2,2,3,3,4,4,5,5,6,6,7,7,8,8,9,9,10,10,11,11,12,12,13,13,14,14],"right_children":[2,4,6,8,10,12,14,16,18,20,22,24,26,28,30,-1,-1,-1,-1,-1,-1,-1,-1,-1,-1,-1,-1,-1,-1,-1,-1],"split_conditions":[1.764706E-1,9E0,2E0,4E0,2E0,1E0,1E0,1E0,8.695652E-2,1E0,1E0,2E0,5.4545456E-1,1.4E1,1E1,4.6815004E-2,3.7872063E-3,-2.17208E-2,7.913266E-3,-1.0310211E-3,-3.224015E-2,-8.8767104E-2,8.277322E-3,3.0841354E-2,6.45452E-2,-3.3761256E-3,3.7405454E-2,-8.107193E-2,3.338076E-2,8.666365E-2,-1.5871687E-2],"split_indices":[4,0,9,3,9,13,6,9,4,7,7,8,4,1,3,0,0,0,0,0,0,0,0,0,0,0,0,0,0,0,0],"split_type":[0,0,0,0,0,0,0,0,0,0,0,0,0,0,0,0,0,0,0,0,0,0,0,0,0,0,0,0,0,0,0],"sum_hessian":[5.735193E3,4.258483E3,1.4767098E3,3.1619045E3,1.0965784E3,1.3537927E3,1.2291706E2,1.6164778E3,1.5454268E3,9.922827E2,1.0429564E2,9.8398834E2,3.698044E2,9.549116E1,2.7425905E1,2.092559E2,1.4072219E3,1.1537529E3,3.916739E2,2.161119E2,7.7617084E2,8.180396E1,2.249168E1,7.998032E2,1.8418517E2,2.7275958E2,9.7044815E1,6.2649715E1,3.284144E1,2.1102045E1,6.32386E0],"tree_param":{"num_deleted":"0","num_feature":"14","num_nodes":"31","size_leaf_vector":"1"}},{"base_weights":[-8.205217E-3,-1.040126E-1,1.9525795E-1,-6.542528E-2,-4.3295625E-1,2.2688726E-1,-1.1037419E-1,1.5339118E-1,-1.2741378E-1,-6.295076E-1,3.0332407E-1,1.5241979E-1,3.8658416E-1,-4.194832E-1,5.207386E-1,2.4104668E-2,-1.1851097E-2,1.3418222E-2,-2.0573458E-2,-8.740024E-2,-2.6719875E-3,4.981585E-2,-8.254448E-3,7.693806E-3,3.150485E-2,4.6910424E-2,1.3507587E-2,-8.464586E-2,5.409016E-2,8.8071756E-2,1.1373858E-2],"categories":[],"categories_nodes":[],"categories_segments":[],"categories_sizes":[],"default_left":[0,0,0,0,0,0,0,0,0,0,0,0,0,0,0,0,0,0,0,0,0,0,0,0,0,0,0,0,0,0,0],"id":11,"left_children":[1,3,5,7,9,11,13,15,17,19,21,23,25,27,29,-1,-1,-1,-1,-1,-1,-1,-1,-1,-1,-1,-1,-1,-1,-1,-1],"loss_changes":[1.11487366E2,4.93257E1,1.7724823E1,4.7239124E1,5.924328E1,1.9677124E1,3.3847828E1,1.8355316E1,5.5618275E1,4.749156E1,6.5557685E0,1.3889536E1,1.0876678E1,4.813374E1,8.268545E0,0E0,0E0,0E0,0E0,0E0,0E0,0E0,0E0,0E0,0E0,0E0,0E0,0E0,0E0,0E0,0E0],"parents":[2147483647,0,0,1,1,2,2,3,3,4,4,5,5,6,6,7,7,8,8,9,9,10,10,11,11,12,12,13,13,14,14],"right_children":[2,4,6,8,10,12,14,16,18,20,22,24,26,28,30,-1,-1,-1,-1,-1,-1,-1,-1,-1,-1,-1,-1,-1,-1,-1,-1],"split_conditions":[4.7619048E-1,2E0,2E0,1E0,3.000001E1,9E0,3.000001E1,8E0,1E0,1E0,6E0,8.4615386E-1,1E0,1E0,5E0,2.4104668E-2,-1.1851097E-2,1.3418222E-2,-2.0573458E-2,-8.740024E-2,-2.6719875E-3,4.981585E-2,-8.254448E-3,7.693806E-3,3.150485E-2,4.6910424E-2,1.3507587E-2,-8.464586E-2,5.409016E-2,8.8071756E-2,1.1373858E-2],"split_indices":[5,9,9,7,1,12,1,1,3,7,0,5,13,7,0,0,0,0,0,0,0,0,0,0,0,0,0,0,0,0,0],"split_type":[0,0,0,0,0,0,0,0,0,0,0,0,0,0,0,0,0,0,0,0,0,0,0,0,0,0,0,0,0,0,0],"sum_hessian":[5.717232E3,3.8872705E3,1.8299615E3,3.4802163E3,4.0705414E2,1.6585762E3,1.7138533E2,7.679422E2,2.7122742E3,3.2140067E2,8.565347E1,1.1324592E3,5.2611694E2,1.15265465E2,5.611987E1,5.8081366E2,1.8712856E2,6.247754E2,2.0874988E3,2.2833607E2,9.30646E1,5.6722103E1,2.8931372E1,7.7447235E2,3.5798685E2,3.954909E2,1.3062604E2,7.9873375E1,3.5392094E1,2.9162558E1,2.6957312E1],"tree_param":{"num_deleted":"0","num_feature":"14","num_nodes":"31","size_leaf_vector":"1"}},{"base_weights":[4.2830817E-3,-7.0878424E-2,2.1523972E-1,-3.6883217E-3,-2.716613E-1,2.7279517E-1,5.097973E-3,1.5393707E-1,-8.407722E-2,-3.1270555E-1,9.846376E-2,3.3065483E-1,1.14228874E-1,4.720996E-2,-7.010679E-1,1.9856473E-2,-1.4109112E-2,-2.3780312E-2,4.7985814E-3,-3.5180565E-2,1.3322373E-2,6.0225795E-3,1.19616605E-1,6.0202766E-2,2.6355514E-2,3.641878E-2,3.3636948E-3,3.2323983E-2,-2.6315232E-3,-8.88597E-2,-3.9670024E-2],"categories":[],"categories_nodes":[],"categories_segments":[],"categories_sizes":[],"default_left":[0,0,1,0,0,0,0,0,0,0,0,0,0,0,0,0,0,0,0,0,0,0,0,0,0,0,0,0,0,0,0],"id":12,"left_children":[1,3,5,7,9,11,13,15,17,19,21,23,25,27,29,-1,-1,-1,-1,-1,-1,-1,-1,-1,-1,-1,-1,-1,-1,-1,-1],"loss_changes":[9.086193E1,5.699935E1,1.8205711E1,4.014048E1,1.6124443E1,1.0803741E1,9.68832E0,1.4115198E1,4.2601204E1,1.6678497E1,4.398676E0,1.5596649E1,6.382526E0,6.246024E0,6.940346E-1,0E0,0E0,0E0,0E0,0E0,0E0,0E0,0E0,0E0,0E0,0E0,0E0,0E0,0E0,0E0,0E0],"parents":[2147483647,0,0,1,1,2,2,3,3,4,4,5,5,6,6,7,7,8,8,9,9,10,10,11,11,12,12,13,13,14,14],"right_children":[2,4,6,8,10,12,14,16,18,20,22,24,26,28,30,-1,-1,-1,-1,-1,-1,-1,-1,-1,-1,-1,-1,-1,-1,-1,-1],"split_conditions":[1.8181819E-1,9E0,8E0,2E0,5.217391E-1,1E0,2E0,2E0,2.1428572E-1,2E0,1.4E1,1E0,7E0,5E0,3.1E1,1.9856473E-2,-1.4109112E-2,-2.3780312E-2,4.7985814E-3,-3.5180565E-2,1.3322373E-2,6.0225795E-3,1.19616605E-1,6.0202766E-2,2.6355514E-2,3.641878E-2,3.3636948E-3,3.2323983E-2,-2.6315232E-3,-8.88597E-2,-3.9670024E-2],"split_indices":[4,0,1,3,5,13,9,9,5,8,3,9,11,11,11,0,0,0,0,0,0,0,0,0,0,0,0,0,0,0,0],"split_type":[0,0,0,0,0,0,0,0,0,0,0,0,0,0,0,0,0,0,0,0,0,0,0,0,0,0,0,0,0,0,0],"sum_hessian":[5.7285483E3,4.224183E3,1.5043655E3,3.165797E3,1.0583859E3,1.1806897E3,3.2367572E2,1.0689332E3,2.0968638E3,9.528741E2,1.05511795E2,8.6424713E2,3.164426E2,3.0634036E2,1.7335367E1,9.287692E2,1.4016399E2,9.685906E2,1.1282733E3,8.7625323E2,7.662081E1,1.02979416E2,2.5323763E0,1.697502E2,6.9449695E2,7.629423E1,2.4014836E2,6.372106E1,2.4261931E2,9.538783E0,7.7965846E0],"tree_param":{"num_deleted":"0","num_feature":"14","num_nodes":"31","size_leaf_vector":"1"}},{"base_weights":[3.7782723E-3,-1.11097276E-1,1.2828754E-1,5.9023112E-2,-2.246061E-1,7.662281E-2,2.6566738E-1,1.1085321E-1,-3.1615934E-1,-3.207281E-1,-8.335064E-2,1.0486076E-1,-2.2503923E-1,3.3402517E-1,7.534772E-2,1.9667294E-2,-9.559001E-3,-6.8432696E-2,2.3960669E-2,9.06052E-3,-3.7121948E-2,-1.6853976E-4,-2.1493746E-2,2.7745722E-2,2.2215608E-3,-4.3213364E-2,4.236246E-2,5.83253E-2,2.803731E-2,3.1325877E-2,-3.1251293E-3],"categories":[],"categories_nodes":[],"categories_segments":[],"categories_sizes":[],"default_left":[0,0,0,0,0,0,0,0,0,0,0,0,0,0,0,0,0,0,0,0,0,0,0,0,0,0,0,0,0,0,0],"id":13,"left_children":[1,3,5,7,9,11,13,15,17,19,21,23,25,27,29,-1,-1,-1,-1,-1,-1,-1,-1,-1,-1,-1,-1,-1,-1,-1,-1],"loss_changes":[8.165495E1,5.7351833E1,1.9424248E1,2.3158539E1,2.415821E1,1.6994354E1,9.710117E0,1.8542433E1,2.9750105E1,2.2040085E1,7.765021E0,2.5989292E1,2.3133717E1,7.1943893E0,5.0575747E0,0E0,0E0,0E0,0E0,0E0,0E0,0E0,0E0,0E0,0E0,0E0,0E0,0E0,0E0,0E0,0E0],"parents":[2147483647,0,0,1,1,2,2,3,3,4,4,5,5,6,6,7,7,8,8,9,9,10,10,11,11,12,12,13,13,14,14],"right_children":[2,4,6,8,10,12,14,16,18,20,22,24,26,28,30,-1,-1,-1,-1,-1,-1,-1,-1,-1,-1,-1,-1,-1,-1,-1,-1],"split_conditions":[3.043478E-1,2E0,7.5E-1,2E0,1.6666667E-1,2E0,1E0,8E0,3.000001E1,1E0,1E1,1E0,1E0,1E0,4E0,1.9667294E-2,-9.559001E-3,-6.8432696E-2,2.3960669E-2,9.06052E-3,-3.7121948E-2,-1.6853976E-4,-2.1493746E-2,2.7745722E-2,2.2215608E-3,-4.3213364E-2,4.236246E-2,5.83253E-2,2.803731E-2,3.1325877E-2,-3.1251293E-3],"split_indices":[5,3,5,9,5,9,13,0,1,9,3,7,7,9,0,0,0,0,0,0,0,0,0,0,0,0,0,0,0,0,0],"split_type":[0,0,0,0,0,0,0,0,0,0,0,0,0,0,0,0,0,0,0,0,0,0,0,0,0,0,0,0,0,0,0],"sum_hessian":[5.7069146E3,2.968347E3,2.7385679E3,1.1881288E3,1.780218E3,1.9912659E3,7.473019E2,1.0445347E3,1.4359413E2,1.0585927E3,7.216254E2,1.8214191E3,1.6984685E2,5.492652E2,1.9803665E2,7.3785223E2,3.066824E2,8.6235825E1,5.735831E1,1.1564925E2,9.4294336E2,4.4590265E2,2.7572275E2,5.8899744E2,1.2324216E3,1.2899675E2,4.0850098E1,9.554813E1,4.537171E2,6.0677044E1,1.373596E2],"tree_param":{"num_deleted":"0","num_feature":"14","num_nodes":"31","size_leaf_vector":"1"}},{"base_weights":[-1.3163331E-3,-8.4900275E-2,1.4913443E-1,2.8588323E-2,-2.3885547E-1,1.7316775E-1,-1.2809724E-1,-1.8204166E-2,3.1749797E-1,-1.8185766E-1,-3.8684005E-1,3.007312E-1,1.09688796E-1,-3.6613306E-1,5.140289E-1,1.8712033E-3,-2.923945E-2,4.6547826E-2,9.39832E-3,1.4742704E-3,-2.5210058E-2,-5.7129998E-2,-3.423413E-2,4.4984993E-2,1.0201105E-2,3.7919417E-2,6.9688843E-3,-7.259208E-2,3.7644327E-2,7.3291086E-2,1.3505823E-2],"categories":[],"categories_nodes":[],"categories_segments":[],"categories_sizes":[],"default_left":[0,0,0,0,0,0,0,0,0,0,0,0,0,0,0,0,0,0,0,0,0,0,0,0,0,0,0,0,0,0,0],"id":14,"left_children":[1,3,5,7,9,11,13,15,17,19,21,23,25,27,29,-1,-1,-1,-1,-1,-1,-1,-1,-1,-1,-1,-1,-1,-1,-1,-1],"loss_changes":[7.209009E1,6.4396736E1,1.3663563E1,2.8697334E1,1.3121185E1,1.5226849E1,2.5240942E1,1.850317E1,9.742758E0,1.5621983E1,3.3666763E0,1.8492386E1,1.3555464E1,3.237687E1,3.6124697E0,0E0,0E0,0E0,0E0,0E0,0E0,0E0,0E0,0E0,0E0,0E0,0E0,0E0,0E0,0E0,0E0],"parents":[2147483647,0,0,1,1,2,2,3,3,4,4,5,5,6,6,7,7,8,8,9,9,10,10,11,11,12,12,13,13,14,14],"right_children":[2,4,6,8,10,12,14,16,18,20,22,24,26,28,30,-1,-1,-1,-1,-1,-1,-1,-1,-1,-1,-1,-1,-1,-1,-1,-1],"split_conditions":[9.52381E-2,4E0,2E0,2E0,9E0,1E0,1E0,2E0,3.1E1,2.14E3,4E0,3.2E1,3E0,3.000001E1,9E0,1.8712033E-3,-2.923945E-2,4.6547826E-2,9.39832E-3,1.4742704E-3,-2.5210058E-2,-5.7129998E-2,-3.423413E-2,4.4984993E-2,1.0201105E-2,3.7919417E-2,6.9688843E-3,-7.259208E-2,3.7644327E-2,7.3291086E-2,1.3505823E-2],"split_indices":[4,3,9,8,0,7,7,9,11,2,11,11,12,1,3,0,0,0,0,0,0,0,0,0,0,0,0,0,0,0,0],"split_type":[0,0,0,0,0,0,0,0,0,0,0,0,0,0,0,0,0,0,0,0,0,0,0,0,0,0,0,0,0,0,0],"sum_hessian":[5.730681E3,3.6842866E3,2.0463948E3,2.1213445E3,1.562942E3,1.8834896E3,1.6290512E2,1.8264633E3,2.9488132E2,1.1299564E3,4.329857E2,6.2459796E2,1.2588917E3,1.19161736E2,4.3743385E1,1.6105544E3,2.159087E2,1.7676779E2,1.1811352E2,2.976539E2,8.323025E2,8.185114E1,3.5113455E2,3.5611053E2,2.684874E2,1.6160115E2,1.0972905E3,8.0285034E1,3.8876698E1,2.7136324E1,1.660706E1],"tree_param":{"num_deleted":"0","num_feature":"14","num_nodes":"31","size_leaf_vector":"1"}},{"base_weights":[-1.093537E-2,-1.1272991E-1,8.585108E-2,-3.7052765E-2,-2.7220988E-1,4.2869695E-2,2.5098193E-1,-2.2634512E-3,-3.1386486E-1,9.7381614E-2,-3.2321504E-1,1.01301014E-1,-7.700793E-2,1.9411871E-1,4.3961504E-1,2.1833096E-2,-5.2403747E-3,4.0988136E-2,-4.8280414E-2,2.831187E-2,-2.1020422E-2,-2.8466204E-2,-6.51818E-2,1.6575605E-2,-1.6417768E-3,-1.1522184E-2,1.7164743E-2,4.198327E-2,1.3080746E-2,6.588662E-2,2.238932E-2],"categories":[],"categories_nodes":[],"categories_segments":[],"categories_sizes":[],"default_left":[0,0,0,0,0,0,0,0,0,0,0,0,0,0,0,0,0,0,0,0,0,0,0,0,0,0,0,0,0,0,0],"id":15,"left_children":[1,3,5,7,9,11,13,15,17,19,21,23,25,27,29,-1,-1,-1,-1,-1,-1,-1,-1,-1,-1,-1,-1,-1,-1,-1,-1],"loss_changes":[5.6322742E1,3.3616695E1,2.0788588E1,1.8207167E1,1.6931244E1,1.6303787E1,6.404373E0,1.8600433E1,2.6007235E1,6.3143625E0,9.797379E0,1.1873642E1,7.269347E0,6.6140423E0,6.443325E0,0E0,0E0,0E0,0E0,0E0,0E0,0E0,0E0,0E0,0E0,0E0,0E0,0E0,0E0,0E0,0E0],"parents":[2147483647,0,0,1,1,2,2,3,3,4,4,5,5,6,6,7,7,8,8,9,9,10,10,11,11,12,12,13,13,14,14],"right_children":[2,4,6,8,10,12,14,16,18,20,22,24,26,28,30,-1,-1,-1,-1,-1,-1,-1,-1,-1,-1,-1,-1,-1,-1,-1,-1],"split_conditions":[2.6923078E-1,8E0,4.375E-1,2E0,1E0,8E0,2E0,1E0,1.609E3,3.7037037E-2,2E0,3.4E1,2E0,2.14E3,1.9E1,2.1833096E-2,-5.2403747E-3,4.0988136E-2,-4.8280414E-2,2.831187E-2,-2.1020422E-2,-2.8466204E-2,-6.51818E-2,1.6575605E-2,-1.6417768E-3,-1.1522184E-2,1.7164743E-2,4.198327E-2,1.3080746E-2,6.588662E-2,2.238932E-2],"split_indices":[5,0,4,9,9,0,8,7,2,5,9,11,8,2,11,0,0,0,0,0,0,0,0,0,0,0,0,0,0,0,0],"split_type":[0,0,0,0,0,0,0,0,0,0,0,0,0,0,0,0,0,0,0,0,0,0,0,0,0,0,0,0,0,0,0],"sum_hessian":[5.714709E3,2.7852136E3,2.9294956E3,1.8897252E3,8.954884E2,2.3254668E3,6.040288E2,1.679639E3,2.1008624E2,1.0848433E2,7.870041E2,1.5635223E3,7.6194446E2,4.656794E2,1.383494E2,3.1044934E2,1.3691897E3,3.9488575E1,1.7059767E2,6.7689354E1,4.079497E1,7.060355E2,8.09686E1,1.01006775E3,5.534545E2,6.609108E2,1.01033646E2,1.00774E2,3.649054E2,6.759464E1,7.075476E1],"tree_param":{"num_deleted":"0","num_feature":"14","num_nodes":"31","size_leaf_vector":"1"}},{"base_weights":[7.539797E-3,-3.5211783E-2,2.0506904E-1,-6.452979E-2,1.8416771E-1,2.661221E-1,6.263325E-2,-2.0303821E-2,-1.9814833E-1,2.8222093E-1,1.3155709E-2,1.9805199E-1,4.185488E-1,1.5713324E-1,-1.7147021E-1,-3.3838917E-3,3.8424045E-2,-2.630862E-2,-1.3189799E-3,6.2189233E-3,3.845425E-2,-4.779676E-3,5.4214466E-2,1.1398322E-2,4.622241E-2,3.4479566E-2,8.22397E-2,3.751456E-3,6.166465E-2,1.0364451E-2,-4.1634183E-2],"categories":[],"categories_nodes":[],"categories_segments":[],"categories_sizes":[],"default_left":[0,0,0,0,0,0,0,0,0,0,0,0,0,0,0,0,0,0,0,0,0,0,0,0,0,0,0,0,0,0,0],"id":16,"left_children":[1,3,5,7,9,11,13,15,17,19,21,23,25,27,29,-1,-1,-1,-1,-1,-1,-1,-1,-1,-1,-1,-1,-1,-1,-1,-1],"loss_changes":[4.812561E1,3.014537E1,8.800922E0,2.4422716E1,9.261908E0,7.2780075E0,6.7861037E0,1.7024036E1,1.2341286E1,7.8819046E0,6.5524755E0,1.0881123E1,6.2129745E0,1.1969809E1,5.9945936E0,0E0,0E0,0E0,0E0,0E0,0E0,0E0,0E0,0E0,0E0,0E0,0E0,0E0,0E0,0E0,0E0],"parents":[2147483647,0,0,1,1,2,2,3,3,4,4,5,5,6,6,7,7,8,8,9,9,10,10,11,11,12,12,13,13,14,14],"right_children":[2,4,6,8,10,12,14,16,18,20,22,24,26,28,30,-1,-1,-1,-1,-1,-1,-1,-1,-1,-1,-1,-1,-1,-1,-1,-1],"split_conditions":[3.0769232E-1,2E0,8E0,9E0,9E0,9E0,1E0,9E0,8.3333336E-2,1E0,3.7E1,7.1428573E-1,1E1,2E0,1E0,-3.3838917E-3,3.8424045E-2,-2.630862E-2,-1.3189799E-3,6.2189233E-3,3.845425E-2,-4.779676E-3,5.4214466E-2,1.1398322E-2,4.622241E-2,3.4479566E-2,8.22397E-2,3.751456E-3,6.166465E-2,1.0364451E-2,-4.1634183E-2],"split_indices":[4,8,0,0,12,12,13,1,4,6,11,4,3,8,8,0,0,0,0,0,0,0,0,0,0,0,0,0,0,0,0],"split_type":[0,0,0,0,0,0,0,0,0,0,0,0,0,0,0,0,0,0,0,0,0,0,0,0,0,0,0,0,0,0,0],"sum_hessian":[5.697066E3,4.6841006E3,1.01296576E3,4.132532E3,5.5156836E2,7.084363E2,3.0452948E2,3.1057288E3,1.0268033E3,3.5015152E2,2.0141681E2,4.9132263E2,2.1711366E2,2.1718694E2,8.734255E1,3.006069E3,9.965962E1,7.596664E2,2.6713693E2,1.1165567E2,2.3849586E2,1.8142218E2,1.9994629E1,3.737984E2,1.1752422E2,1.8515358E2,3.1960072E1,1.7318558E2,4.4001354E1,4.1402893E1,4.593966E1],"tree_param":{"num_deleted":"0","num_feature":"14","num_nodes":"31","size_leaf_vector":"1"}},{"base_weights":[-1.8641698E-3,2.630202E-2,-2.7685076E-1,1.8640901E-1,-2.6436111E-2,-4.9403608E-1,2.8017032E-1,2.76982E-1,7.130018E-2,-7.9142906E-2,1.6188207E-1,-8.254455E-1,2.268814E-1,5.7804024E-1,-7.865831E-2,3.4210663E-2,5.564181E-3,5.8429115E-3,1.983279E-1,8.236567E-3,-1.6764272E-2,2.265209E-2,-9.904086E-3,-8.997499E-2,6.82712E-2,1.05508976E-1,1.3629456E-2,5.381891E-2,1.8589447E-1,1.4464839E-3,-6.1267603E-2],"categories":[],"categories_nodes":[],"categories_segments":[],"categories_sizes":[],"default_left":[0,0,0,0,0,0,0,0,0,0,0,0,0,0,0,0,0,0,0,0,0,0,0,0,0,0,0,0,0,0,0],"id":17,"left_children":[1,3,5,7,9,11,13,15,17,19,21,23,25,27,29,-1,-1,-1,-1,-1,-1,-1,-1,-1,-1,-1,-1,-1,-1,-1,-1],"loss_changes":[4.40218E1,4.353789E1,6.402303E1,1.3299931E1,3.8515114E1,9.104733E1,1.5947346E1,1.0282318E1,1.3762063E1,4.3344154E1,1.4334629E1,2.9834122E1,8.900529E0,3.1553135E0,3.4085321E0,0E0,0E0,0E0,0E0,0E0,0E0,0E0,0E0,0E0,0E0,0E0,0E0,0E0,0E0,0E0,0E0],"parents":[2147483647,0,0,1,1,2,2,3,3,4,4,5,5,6,6,7,7,8,8,9,9,10,10,11,11,12,12,13,13,14,14],"right_children":[2,4,6,8,10,12,14,16,18,20,22,24,26,28,30,-1,-1,-1,-1,-1,-1,-1,-1,-1,-1,-1,-1,-1,-1,-1,-1],"split_conditions":[2E0,1E0,3.000001E1,7E0,2.2727273E-1,1E0,5E0,8E0,7.1428573E-1,2E0,8E0,1E0,1E0,9E0,5E0,3.4210663E-2,5.564181E-3,5.8429115E-3,1.983279E-1,8.236567E-3,-1.6764272E-2,2.265209E-2,-9.904086E-3,-8.997499E-2,6.82712E-2,1.05508976E-1,1.3629456E-2,5.381891E-2,1.8589447E-1,1.4464839E-3,-6.1267603E-2],"split_indices":[9,7,1,3,4,6,0,1,4,3,1,7,7,3,3,0,0,0,0,0,0,0,0,0,0,0,0,0,0,0,0],"split_type":[0,0,0,0,0,0,0,0,0,0,0,0,0,0,0,0,0,0,0,0,0,0,0,0,0,0,0,0,0,0,0],"sum_hessian":[5.6817207E3,5.1546475E3,5.270733E2,1.2765752E3,3.8780723E3,3.792967E2,1.4777663E2,7.13642E2,5.629331E2,3.0304773E3,8.4759503E2,2.5974542E2,1.1955126E2,8.041326E1,6.7363365E1,5.5098175E2,1.626603E2,5.6019257E2,2.7405465E0,1.0727751E3,1.957702E3,6.7941455E2,1.681805E2,2.4793356E2,1.1811871E1,1.073718E1,1.0881409E2,7.9364265E1,1.048993E0,5.8189133E1,9.1742325E0],"tree_param":{"num_deleted":"0","num_feature":"14","num_nodes":"31","size_leaf_vector":"1"}},{"base_weights":[-1.3677127E-2,-4.737909E-2,1.9954678E-1,-1.2381299E-1,3.4017835E-2,2.8271857E-1,-6.209507E-3,4.2807028E-2,-1.8265183E-1,6.999034E-2,-1.039739E-1,3.759826E-1,2.3823407E-2,-5.3520583E-2,9.290885E-1,1.6051924E-2,-1.0222625E-2,-2.3996074E-2,-6.5004746E-3,-5.1473356E-3,1.407696E-2,1.0188624E-2,-1.55685935E-2,5.028191E-2,2.859497E-2,2.176918E-2,-2.7768468E-2,5.62892E-4,-3.6427032E-2,1.1366255E-2,1.7447314E-1],"categories":[],"categories_nodes":[],"categories_segments":[],"categories_sizes":[],"default_left":[0,0,0,0,1,1,0,0,0,0,0,0,0,0,0,0,0,0,0,0,0,0,0,0,0,0,0,0,0,0,0],"id":18,"left_children":[1,3,5,7,9,11,13,15,17,19,21,23,25,27,29,-1,-1,-1,-1,-1,-1,-1,-1,-1,-1,-1,-1,-1,-1,-1,-1],"loss_changes":[4.1055107E1,3.0695171E1,1.3346212E1,2.4951519E1,1.1869798E1,1.33998375E1,1.0025801E1,1.1366128E1,1.2663143E1,1.6309055E1,5.280656E0,4.5175514E0,8.719581E0,3.9638028E0,7.057521E0,0E0,0E0,0E0,0E0,0E0,0E0,0E0,0E0,0E0,0E0,0E0,0E0,0E0,0E0,0E0,0E0],"parents":[2147483647,0,0,1,1,2,2,3,3,4,4,5,5,6,6,7,7,8,8,9,9,10,10,11,11,12,12,13,13,14,14],"right_children":[2,4,6,8,10,12,14,16,18,20,22,24,26,28,30,-1,-1,-1,-1,-1,-1,-1,-1,-1,-1,-1,-1,-1,-1,-1,-1],"split_conditions":[2E0,3E-1,6E0,1E0,8E0,7E0,8.4615386E-1,1E0,1.6666667E-1,6E0,4E0,1.2E1,3.2E1,2.2E3,5E0,1.6051924E-2,-1.0222625E-2,-2.3996074E-2,-6.5004746E-3,-5.1473356E-3,1.407696E-2,1.0188624E-2,-1.55685935E-2,5.028191E-2,2.859497E-2,2.176918E-2,-2.7768468E-2,5.62892E-4,-3.6427032E-2,1.1366255E-2,1.7447314E-1],"split_indices":[8,5,3,3,1,1,5,8,5,12,12,11,11,2,1,0,0,0,0,0,0,0,0,0,0,0,0,0,0,0,0],"split_type":[0,0,0,0,0,0,0,0,0,0,0,0,0,0,0,0,0,0,0,0,0,0,0,0,0,0,0,0,0,0,0],"sum_hessian":[5.7108403E3,4.9320615E3,7.7877905E2,2.543307E3,2.3887544E3,5.5433075E2,2.2444827E2,6.638075E2,1.8794994E3,1.8951963E3,4.9355817E2,4.0719214E2,1.4713861E2,2.1453883E2,9.909447E0,3.6635718E2,2.9745032E2,1.2631482E3,6.1635126E2,6.9786633E2,1.1973298E3,9.8895485E1,3.946627E2,1.6714168E2,2.4005048E2,8.972427E1,5.741433E1,1.8105743E2,3.34814E1,5.5251346E0,4.3843117E0],"tree_param":{"num_deleted":"0","num_feature":"14","num_nodes":"31","size_leaf_vector":"1"}},{"base_weights":[3.3312014E-3,-7.381397E-2,7.359076E-2,5.9761074E-3,-2.7335083E-1,1.0882913E-1,-6.137846E-2,5.4052137E-2,-1.641565E-1,-5.072292E-1,-1.6410927E-1,2.2509503E-1,7.4176274E-2,-1.2294006E-1,9.285446E-2,1.292055E-2,-2.0125406E-4,-5.245377E-3,-2.8516436E-2,-5.2748065E-2,1.172678E-2,-1.2971331E-2,-6.265401E-2,1.8792393E-2,6.6599295E-2,-6.1161104E-3,1.1726542E-2,-7.842505E-3,-3.859715E-2,2.2172472E-2,-3.510141E-2],"categories":[],"categories_nodes":[],"categories_segments":[],"categories_sizes":[],"default_left":[0,0,1,0,0,0,0,0,0,0,0,0,0,0,0,0,0,0,0,0,0,0,0,0,0,0,0,0,0,0,0],"id":19,"left_children":[1,3,5,7,9,11,13,15,17,19,21,23,25,27,29,-1,-1,-1,-1,-1,-1,-1,-1,-1,-1,-1,-1,-1,-1,-1,-1],"loss_changes":[3.0744844E1,4.3047123E1,1.4125637E1,1.581415E1,1.9649239E1,9.468925E0,5.8529577E0,6.3514643E0,5.7430544E0,3.165615E0,8.315644E0,8.726381E0,1.0593032E1,5.123393E0,1.015003E1,0E0,0E0,0E0,0E0,0E0,0E0,0E0,0E0,0E0,0E0,0E0,0E0,0E0,0E0,0E0,0E0],"parents":[2147483647,0,0,1,1,2,2,3,3,4,4,5,5,6,6,7,7,8,8,9,9,10,10,11,11,12,12,13,13,14,14],"right_children":[2,4,6,8,10,12,14,16,18,20,22,24,26,28,30,-1,-1,-1,-1,-1,-1,-1,-1,-1,-1,-1,-1,-1,-1,-1,-1],"split_conditions":[2.6923078E-1,6E0,8E0,9E0,1E-1,2.14E3,1E1,1E0,1.3E1,8E-2,2.64E3,7.1428573E-1,3E0,1.2E1,1E0,1.292055E-2,-2.0125406E-4,-5.245377E-3,-2.8516436E-2,-5.2748065E-2,1.172678E-2,-1.2971331E-2,-6.265401E-2,1.8792393E-2,6.6599295E-2,-6.1161104E-3,1.1726542E-2,-7.842505E-3,-3.859715E-2,2.2172472E-2,-3.510141E-2],"split_indices":[5,3,1,0,5,2,12,3,11,4,2,4,0,1,13,0,0,0,0,0,0,0,0,0,0,0,0,0,0,0,0],"split_type":[0,0,0,0,0,0,0,0,0,0,0,0,0,0,0,0,0,0,0,0,0,0,0,0,0,0,0,0,0,0,0],"sum_hessian":[5.670284E3,2.7026821E3,2.9676023E3,1.9313507E3,7.713314E2,2.353368E3,6.1423425E2,1.5063649E3,4.2498593E2,2.4441446E2,5.26917E2,5.391012E2,1.8142667E3,4.3915125E2,1.7508298E2,6.430574E2,8.633075E2,2.2173506E2,2.0325087E2,2.368879E2,7.526568E0,4.916297E2,3.5287285E1,4.985E2,4.06012E1,4.3803543E2,1.3762313E3,3.766977E2,6.2453545E1,1.3607594E2,3.9007042E1],"tree_param":{"num_deleted":"0","num_feature":"14","num_nodes":"31","size_leaf_vector":"1"}},{"base_weights":[2.3223332E-3,-3.7886653E-2,1.3239834E-1,2.8891496E-2,-1.1631218E-1,1.8850426E-1,5.0867405E-2,1.17900185E-1,-1.1326028E-1,-3.646315E-1,-6.0668387E-2,1.8008412E-1,1.1845596E0,-6.61112E-2,2.0160691E-1,8.291518E-3,3.1393643E-2,-1.4599338E-2,1.0101608E-2,-1.5134193E-2,-5.1369723E-2,-4.6130858E-4,-1.932751E-2,4.23197E-3,2.39639E-2,2.2590737E-1,-2.827704E-2,-5.366789E-2,-3.0654527E-3,8.581222E-3,5.3728133E-2],"categories":[],"categories_nodes":[],"categories_segments":[],"categories_sizes":[],"default_left":[0,0,0,0,0,0,0,0,0,0,0,0,0,0,0,0,0,0,0,0,0,0,0,0,0,0,0,0,0,0,0],"id":20,"left_children":[1,3,5,7,9,11,13,15,17,19,21,23,25,27,29,-1,-1,-1,-1,-1,-1,-1,-1,-1,-1,-1,-1,-1,-1,-1,-1],"loss_changes":[2.9715122E1,2.2732048E1,6.127096E0,2.9681847E1,2.7558874E1,6.4484653E0,9.680434E0,9.866686E0,6.351057E0,1.153376E1,1.2129471E1,6.46183E0,1.0854162E1,5.146411E0,9.274541E0,0E0,0E0,0E0,0E0,0E0,0E0,0E0,0E0,0E0,0E0,0E0,0E0,0E0,0E0,0E0,0E0],"parents":[2147483647,0,0,1,1,2,2,3,3,4,4,5,5,6,6,7,7,8,8,9,9,10,10,11,11,12,12,13,13,14,14],"right_children":[2,4,6,8,10,12,14,16,18,20,22,24,26,28,30,-1,-1,-1,-1,-1,-1,-1,-1,-1,-1,-1,-1,-1,-1,-1,-1],"split_conditions":[5.5E-1,5E0,3.3E1,7E0,1.25E-1,1.6E1,3.6E1,2E0,2E0,8E0,3.4E1,1E0,1.2E1,5.7894737E-1,7E0,8.291518E-3,3.1393643E-2,-1.4599338E-2,1.0101608E-2,-1.5134193E-2,-5.1369723E-2,-4.6130858E-4,-1.932751E-2,4.23197E-3,2.39639E-2,2.2590737E-1,-2.827704E-2,-5.366789E-2,-3.0654527E-3,8.581222E-3,5.3728133E-2],"split_indices":[5,3,11,0,5,3,11,8,8,3,11,6,12,5,3,0,0,0,0,0,0,0,0,0,0,0,0,0,0,0,0],"split_type":[0,0,0,0,0,0,0,0,0,0,0,0,0,0,0,0,0,0,0,0,0,0,0,0,0,0,0,0,0,0,0],"sum_hessian":[5.6794653E3,4.338928E3,1.3405371E3,2.343827E3,1.9951013E3,7.933069E2,5.472302E2,1.4414376E3,9.023892E2,3.6420877E2,1.6308925E3,7.8782776E2,5.4790874E0,3.0843576E2,2.3879443E2,1.2243591E3,2.1707849E2,7.830832E2,1.19306015E2,1.5065724E2,2.1355153E2,1.1470487E3,4.838438E2,2.3829831E2,5.495295E2,2.851428E0,2.6276593E0,2.0621305E1,2.8781445E2,1.7848103E2,6.0313408E1],"tree_param":{"num_deleted":"0","num_feature":"14","num_nodes":"31","size_leaf_vector":"1"}},{"base_weights":[-7.187049E-3,-6.161097E-2,7.927004E-2,-8.6224034E-2,1.1993744E-1,-1.811073E-2,1.4333898E-1,-2.585033E-2,-1.6376683E-1,-7.163357E-2,1.8692836E-1,-6.648973E-2,2.2644751E-1,1.79367E-1,2.3435913E-2,8.457151E-4,-1.5791247E-2,2.7191645E-2,-1.8191433E-2,4.853254E-3,-4.4135638E-2,-6.0781036E-3,2.4561746E-2,1.1224278E-3,-1.9842653E-2,1.1246255E-2,5.386966E-2,1.3900104E-2,2.917623E-2,-3.4181294E-3,3.5576727E-2],"categories":[],"categories_nodes":[],"categories_segments":[],"categories_sizes":[],"default_left":[0,0,0,0,0,0,0,1,0,0,0,0,0,0,0,0,0,0,0,0,0,0,0,0,0,0,0,0,0,0,0],"id":21,"left_children":[1,3,5,7,9,11,13,15,17,19,21,23,25,27,29,-1,-1,-1,-1,-1,-1,-1,-1,-1,-1,-1,-1,-1,-1,-1,-1],"loss_changes":[2.6735207E1,1.5591155E1,1.3697479E1,1.4373434E1,5.3611503E0,1.0331488E1,5.715601E0,7.8300443E0,1.0677612E1,4.850165E0,4.5073557E0,7.4740105E0,5.0728197E0,4.5780144E0,5.8920827E0,0E0,0E0,0E0,0E0,0E0,0E0,0E0,0E0,0E0,0E0,0E0,0E0,0E0,0E0,0E0,0E0],"parents":[2147483647,0,0,1,1,2,2,3,3,4,4,5,5,6,6,7,7,8,8,9,9,10,10,11,11,12,12,13,13,14,14],"right_children":[2,4,6,8,10,12,14,16,18,20,22,24,26,28,30,-1,-1,-1,-1,-1,-1,-1,-1,-1,-1,-1,-1,-1,-1,-1,-1],"split_conditions":[8.3333336E-2,2E0,7E0,1E0,1E0,2E0,1E0,8E0,1.62E3,9E0,2.14E3,1E0,1E0,3E0,5.4545456E-1,8.457151E-4,-1.5791247E-2,2.7191645E-2,-1.8191433E-2,4.853254E-3,-4.4135638E-2,-6.0781036E-3,2.4561746E-2,1.1224278E-3,-1.9842653E-2,1.1246255E-2,5.386966E-2,1.3900104E-2,2.917623E-2,-3.4181294E-3,3.5576727E-2],"split_indices":[4,8,12,8,6,8,13,1,2,12,2,8,10,10,4,0,0,0,0,0,0,0,0,0,0,0,0,0,0,0,0],"split_type":[0,0,0,0,0,0,0,0,0,0,0,0,0,0,0,0,0,0,0,0,0,0,0,0,0,0,0,0,0,0,0],"sum_hessian":[5.6798555E3,3.4858398E3,2.1940159E3,3.0701372E3,4.1570264E2,8.709475E2,1.3230684E3,1.7269176E3,1.3432196E3,1.076866E2,3.0801602E2,7.2771716E2,1.4323033E2,1.0169908E3,3.0607758E2,1.3715487E3,3.553689E2,5.3152588E1,1.290067E3,8.192751E1,2.5759083E1,5.8992115E1,2.4902391E2,4.5854053E2,2.6917664E2,1.05923615E2,3.7306717E1,7.499046E2,2.6708618E2,2.6161737E2,4.4460186E1],"tree_param":{"num_deleted":"0","num_feature":"14","num_nodes":"31","size_leaf_vector":"1"}},{"base_weights":[1.6018718E-3,2.6099924E-2,-2.3989235E-1,7.796679E-2,-6.0711592E-2,-4.412538E-1,2.3898126E-1,2.4421643E-1,4.2976495E-2,-4.103552E-1,-6.5103364E-3,-7.797222E-1,2.2445567E-1,4.927722E-1,-7.690009E-2,3.0801842E-2,8.303406E-3,9.979616E-3,-8.773002E-3,-2.826196E-2,-6.3479364E-2,-1.3095522E-2,6.178481E-3,-8.759897E-2,-4.775861E-2,1.0825156E-2,6.279902E-2,4.5494188E-2,1.8008406E-1,3.6989455E-4,-1.0172367E-1],"categories":[],"categories_nodes":[],"categories_segments":[],"categories_sizes":[],"default_left":[0,0,0,0,0,0,0,0,0,0,0,0,0,0,0,0,0,0,0,0,0,0,0,0,0,0,0,0,0,0,0],"id":22,"left_children":[1,3,5,7,9,11,13,15,17,19,21,23,25,27,29,-1,-1,-1,-1,-1,-1,-1,-1,-1,-1,-1,-1,-1,-1,-1,-1],"loss_changes":[3.3485092E1,2.3142067E1,5.037136E1,1.8704165E1,3.6429844E1,8.294191E1,1.2460584E1,5.724758E0,1.975636E1,7.217182E0,1.4162677E1,6.6710205E0,5.774248E0,3.4393196E0,5.301466E0,0E0,0E0,0E0,0E0,0E0,0E0,0E0,0E0,0E0,0E0,0E0,0E0,0E0,0E0,0E0,0E0],"parents":[2147483647,0,0,1,1,2,2,3,3,4,4,5,5,6,6,7,7,8,8,9,9,10,10,11,11,12,12,13,13,14,14],"right_children":[2,4,6,8,10,12,14,16,18,20,22,24,26,28,30,-1,-1,-1,-1,-1,-1,-1,-1,-1,-1,-1,-1,-1,-1,-1,-1],"split_conditions":[2E0,6E0,3.000001E1,1E0,1.25E-1,1E0,5E0,8E0,8E0,1.1E1,8E0,1.4814815E-1,5.217391E-1,9E0,7.1428573E-1,3.0801842E-2,8.303406E-3,9.979616E-3,-8.773002E-3,-2.826196E-2,-6.3479364E-2,-1.3095522E-2,6.178481E-3,-8.759897E-2,-4.775861E-2,1.0825156E-2,6.279902E-2,4.5494188E-2,1.8008406E-1,3.6989455E-4,-1.0172367E-1],"split_indices":[9,3,1,9,5,6,0,12,0,3,12,4,5,3,4,0,0,0,0,0,0,0,0,0,0,0,0,0,0,0,0],"split_type":[0,0,0,0,0,0,0,0,0,0,0,0,0,0,0,0,0,0,0,0,0,0,0,0,0,0,0,0,0,0,0],"sum_hessian":[5.6579004E3,5.137614E3,5.202863E2,3.2161675E3,1.9214464E3,3.663278E2,1.5395853E2,5.581666E2,2.658001E3,2.570013E2,1.6644451E3,2.4273973E2,1.2358805E2,8.505897E1,6.889956E1,3.992268E2,1.5893987E2,1.8528022E3,8.051986E2,1.652252E2,9.177609E1,5.894513E2,1.0749938E3,1.8264537E2,6.0094364E1,9.694071E1,2.664734E1,8.397806E1,1.0809126E0,6.437763E1,4.521931E0],"tree_param":{"num_deleted":"0","num_feature":"14","num_nodes":"31","size_leaf_vector":"1"}},{"base_weights":[-1.9997216E-3,1.974387E-2,-2.2300066E-1,1.455089E-1,-2.2632368E-2,-4.4536456E-1,2.7005333E-1,1.8683402E-1,3.404827E-3,-4.8442356E-2,1.6709013E-1,-8.047525E-1,2.0777938E-1,2.500644E-1,1.035559E0,4.9891733E-3,3.1323876E-2,1.7832624E-2,-7.129376E-3,9.234301E-3,-8.189867E-3,1.0546641E-2,3.8681652E-2,-8.983932E-2,7.388638E-2,8.013422E-2,1.3650238E-2,1.614821E-2,3.7552334E-2,1.320817E-1,2.4204014E-2],"categories":[],"categories_nodes":[],"categories_segments":[],"categories_sizes":[],"default_left":[0,0,0,0,0,0,0,0,0,0,0,0,0,0,0,0,0,0,0,0,0,0,0,0,0,0,0,0,0,0,0],"id":23,"left_children":[1,3,5,7,9,11,13,15,17,19,21,23,25,27,29,-1,-1,-1,-1,-1,-1,-1,-1,-1,-1,-1,-1,-1,-1,-1,-1],"loss_changes":[2.7231764E1,2.7500238E1,5.5773495E1,7.636242E0,1.89094E1,8.2373886E1,2.164771E0,1.7423553E1,3.8542373E0,1.6015156E1,6.221036E0,3.3347626E1,5.183269E0,1.669548E0,5.206516E-1,0E0,0E0,0E0,0E0,0E0,0E0,0E0,0E0,0E0,0E0,0E0,0E0,0E0,0E0,0E0,0E0],"parents":[2147483647,0,0,1,1,2,2,3,3,4,4,5,5,6,6,7,7,8,8,9,9,10,10,11,11,12,12,13,13,14,14],"right_children":[2,4,6,8,10,12,14,16,18,20,22,24,26,28,30,-1,-1,-1,-1,-1,-1,-1,-1,-1,-1,-1,-1,-1,-1,-1,-1],"split_conditions":[2E0,1E0,3.000001E1,8E0,8.5714287E-1,1E0,9E0,4E0,2.2727273E-1,1E0,2E0,1E0,1E0,4.347826E-1,1.875E-1,4.9891733E-3,3.1323876E-2,1.7832624E-2,-7.129376E-3,9.234301E-3,-8.189867E-3,1.0546641E-2,3.8681652E-2,-8.983932E-2,7.388638E-2,8.013422E-2,1.3650238E-2,1.614821E-2,3.7552334E-2,1.320817E-1,2.4204014E-2],"split_indices":[9,7,1,1,5,6,3,1,5,3,8,7,7,5,4,0,0,0,0,0,0,0,0,0,0,0,0,0,0,0,0],"split_type":[0,0,0,0,0,0,0,0,0,0,0,0,0,0,0,0,0,0,0,0,0,0,0,0,0,0,0,0,0,0,0],"sum_hessian":[5.6650474E3,5.1584355E3,5.0661166E2,1.2994547E3,3.858981E3,3.492149E2,1.5739676E2,1.0064541E3,2.9300055E2,3.397524E3,4.61457E2,2.2511487E2,1.2410004E2,1.546843E2,2.7124548E0,4.8376038E2,5.226937E2,8.7265045E1,2.0573552E2,6.52024E2,2.7455E3,3.6154053E2,9.9916466E1,2.1263382E2,1.2481047E1,1.2206571E1,1.1189346E2,9.200781E1,6.267649E1,1.5064154E0,1.2060394E0],"tree_param":{"num_deleted":"0","num_feature":"14","num_nodes":"31","size_leaf_vector":"1"}},{"base_weights":[4.5368324E-6,1.392378E-1,-2.9993204E-2,2.1972905E-1,-8.1474885E-2,-8.855267E-2,3.777822E-2,3.590016E-1,1.2151036E-1,-1.3776179E-1,3.270695E-1,-5.7249095E-2,-4.596926E-1,5.0050807E-1,-1.4635932E-2,3.35262E-2,1.3151407E-1,1.5184732E-2,-7.987218E-2,2.75382E-3,-2.7738351E-2,1.6942782E-3,9.5708676E-2,-2.5883486E-2,-3.226296E-4,-7.919556E-2,2.1319408E-2,5.2980877E-2,-7.5122274E-2,1.3946473E-2,-5.8684004E-3],"categories":[],"categories_nodes":[],"categories_segments":[],"categories_sizes":[],"default_left":[0,0,0,0,0,0,0,0,0,0,0,0,0,0,0,0,0,0,0,0,0,0,0,0,0,0,0,0,0,0,0],"id":24,"left_children":[1,3,5,7,9,11,13,15,17,19,21,23,25,27,29,-1,-1,-1,-1,-1,-1,-1,-1,-1,-1,-1,-1,-1,-1,-1,-1],"loss_changes":[2.3671154E1,1.7865194E1,1.8508585E1,1.00299225E1,6.235326E0,2.9038757E1,5.2446445E1,6.4604225E0,1.2219671E1,5.4843793E0,6.41062E0,2.513681E1,4.3643414E1,8.467445E0,1.3197636E1,0E0,0E0,0E0,0E0,0E0,0E0,0E0,0E0,0E0,0E0,0E0,0E0,0E0,0E0,0E0,0E0],"parents":[2147483647,0,0,1,1,2,2,3,3,4,4,5,5,6,6,7,7,8,8,9,9,10,10,11,11,12,12,13,13,14,14],"right_children":[2,4,6,8,10,12,14,16,18,20,22,24,26,28,30,-1,-1,-1,-1,-1,-1,-1,-1,-1,-1,-1,-1,-1,-1,-1,-1],"split_conditions":[1E0,1E0,2E0,1E0,5.833333E-1,2E0,2E0,1.7E1,1.7E1,3.3333335E-2,5E0,3E0,1E0,3E3,4E0,3.35262E-2,1.3151407E-1,1.5184732E-2,-7.987218E-2,2.75382E-3,-2.7738351E-2,1.6942782E-3,9.5708676E-2,-2.5883486E-2,-3.226296E-4,-7.919556E-2,2.1319408E-2,5.2980877E-2,-7.5122274E-2,1.3946473E-2,-5.8684004E-3],"split_indices":[9,13,10,7,4,9,0,3,3,4,3,1,6,2,0,0,0,0,0,0,0,0,0,0,0,0,0,0,0,0,0],"split_type":[0,0,0,0,0,0,0,0,0,0,0,0,0,0,0,0,0,0,0,0,0,0,0,0,0,0,0,0,0,0,0],"sum_hessian":[5.665452E3,1.0036075E3,4.661844E3,7.3541504E2,2.6819247E2,2.5007268E3,2.1611177E3,3.0304578E2,4.3236926E2,2.362993E2,3.1893162E1,2.3072754E3,1.934515E2,2.1901653E2,1.9421011E3,2.970218E2,6.0239964E0,4.1937875E2,1.2990516E1,1.0856754E2,1.2773176E2,2.2060667E1,9.832495E0,4.8684073E2,1.8204347E3,1.2938557E2,6.406593E1,2.1457057E2,4.445953E0,4.312437E2,1.5108573E3],"tree_param":{"num_deleted":"0","num_feature":"14","num_nodes":"31","size_leaf_vector":"1"}},{"base_weights":[-1.885298E-3,-2.6573958E-2,1.4670847E-1,3.6224045E-2,-1.1410625E-1,2.4340001E-1,1.5879598E-2,6.375802E-2,-9.36273E-2,-1.6187707E-1,7.182288E-2,1.3434128E-1,3.1645417E-1,-1.2048356E-1,2.0769523E-1,8.194889E-3,-1.2130175E-2,-2.804829E-2,7.236288E-4,4.5045787E-3,-2.011084E-2,1.3058818E-2,-2.6394907E-2,4.0210623E-2,3.2256518E-3,5.0603062E-2,2.0608898E-2,2.0617817E-3,-3.6650427E-2,2.5619691E-2,-7.9257704E-2],"categories":[],"categories_nodes":[],"categories_segments":[],"categories_sizes":[],"default_left":[0,0,0,0,0,0,0,0,0,0,1,0,0,1,0,0,0,0,0,0,0,0,0,0,0,0,0,0,0,0,0],"id":25,"left_children":[1,3,5,7,9,11,13,15,17,19,21,23,25,27,29,-1,-1,-1,-1,-1,-1,-1,-1,-1,-1,-1,-1,-1,-1,-1,-1],"loss_changes":[2.0806448E1,2.673754E1,1.0218136E1,1.0133269E1,1.805846E1,3.6589012E0,9.0354185E0,7.879245E0,9.349161E0,1.3134193E1,8.24335E0,5.128786E0,5.7012825E0,7.0189133E0,7.165104E0,0E0,0E0,0E0,0E0,0E0,0E0,0E0,0E0,0E0,0E0,0E0,0E0,0E0,0E0,0E0,0E0],"parents":[2147483647,0,0,1,1,2,2,3,3,4,4,5,5,6,6,7,7,8,8,9,9,10,10,11,11,12,12,13,13,14,14],"right_children":[2,4,6,8,10,12,14,16,18,20,22,24,26,28,30,-1,-1,-1,-1,-1,-1,-1,-1,-1,-1,-1,-1,-1,-1,-1,-1],"split_conditions":[2E0,1E0,2.3E1,1E1,5.625E-1,6E0,3.6E1,2.64E3,1.5789473E-1,1E0,9E0,1E0,1.1E1,6E0,2E0,8.194889E-3,-1.2130175E-2,-2.804829E-2,7.236288E-4,4.5045787E-3,-2.011084E-2,1.3058818E-2,-2.6394907E-2,4.0210623E-2,3.2256518E-3,5.0603062E-2,2.0608898E-2,2.0617817E-3,-3.6650427E-2,2.5619691E-2,-7.9257704E-2],"split_indices":[8,8,11,0,5,11,11,2,5,9,1,7,11,1,9,0,0,0,0,0,0,0,0,0,0,0,0,0,0,0,0],"split_type":[0,0,0,0,0,0,0,0,0,0,0,0,0,0,0,0,0,0,0,0,0,0,0,0,0,0,0,0,0,0,0],"sum_hessian":[5.669462E3,4.8624014E3,8.070605E2,2.8315547E3,2.0308468E3,4.6358148E2,3.4347903E2,2.3366047E3,4.9494998E2,1.6158225E3,4.150243E2,1.871035E2,2.7647797E2,2.0097575E2,1.4250328E2,2.1279868E3,2.0861803E2,1.7288667E2,3.220633E2,2.575014E2,1.3583212E3,3.5372757E2,6.1296726E1,5.083253E1,1.3627097E2,1.00412476E2,1.760655E2,1.2830473E2,7.267101E1,1.3662253E2,5.8807487E0],"tree_param":{"num_deleted":"0","num_feature":"14","num_nodes":"31","size_leaf_vector":"1"}},{"base_weights":[-1.3703873E-2,-6.538329E-2,6.929349E-2,2.006984E-3,-1.6780911E-1,1.5379477E-3,1.3703609E-1,4.6853505E-2,-7.3527806E-2,-3.325355E-1,-9.6303E-2,2.1747099E-1,-4.2390637E-2,1.503687E-1,-2.505803E-1,1.7691633E-3,1.9054119E-2,-1.045103E-2,1.0821212E-2,-2.6274187E-2,-5.7923943E-2,-1.8352795E-2,-2.1913878E-3,-8.967447E-2,2.5374904E-2,-1.1015963E-2,9.960531E-3,-1.0024174E-2,1.6573494E-2,-4.0687453E-2,1.1406749E-1],"categories":[],"categories_nodes":[],"categories_segments":[],"categories_sizes":[],"default_left":[0,0,0,0,0,0,1,0,0,0,0,0,0,0,0,0,0,0,0,0,0,0,0,0,0,0,0,0,0,0,0],"id":26,"left_children":[1,3,5,7,9,11,13,15,17,19,21,23,25,27,29,-1,-1,-1,-1,-1,-1,-1,-1,-1,-1,-1,-1,-1,-1,-1,-1],"loss_changes":[2.4225697E1,2.4024906E1,9.94793E0,7.118195E0,1.6237595E1,1.0297321E1,5.638605E0,5.5213203E0,4.419255E0,7.0396996E0,6.2546024E0,7.645322E0,8.691696E0,4.0538216E0,8.382084E0,0E0,0E0,0E0,0E0,0E0,0E0,0E0,0E0,0E0,0E0,0E0,0E0,0E0,0E0,0E0,0E0],"parents":[2147483647,0,0,1,1,2,2,3,3,4,4,5,5,6,6,7,7,8,8,9,9,10,10,11,11,12,12,13,13,14,14],"right_children":[2,4,6,8,10,12,14,16,18,20,22,24,26,28,30,-1,-1,-1,-1,-1,-1,-1,-1,-1,-1,-1,-1,-1,-1,-1,-1],"split_conditions":[8.695652E-2,4E0,8E0,7E0,1.25E-1,3E0,1.2E1,2E0,5.217391E-1,1.1E1,8E0,1E0,2E0,2E0,5.294118E-1,1.7691633E-3,1.9054119E-2,-1.045103E-2,1.0821212E-2,-2.6274187E-2,-5.7923943E-2,-1.8352795E-2,-2.1913878E-3,-8.967447E-2,2.5374904E-2,-1.1015963E-2,9.960531E-3,-1.0024174E-2,1.6573494E-2,-4.0687453E-2,1.1406749E-1],"split_indices":[4,3,12,0,5,12,1,8,5,3,12,6,10,3,4,0,0,0,0,0,0,0,0,0,0,0,0,0,0,0,0],"split_type":[0,0,0,0,0,0,0,0,0,0,0,0,0,0,0,0,0,0,0,0,0,0,0,0,0,0,0,0,0,0,0],"sum_hessian":[5.6459395E3,3.4795583E3,2.166381E3,2.0993123E3,1.380246E3,1.0835984E3,1.0827828E3,1.3174786E3,7.8183374E2,4.1668692E2,9.63559E2,1.8251021E2,9.0108813E2,1.0473691E3,3.541367E1,1.0961372E3,2.213414E2,6.6832465E2,1.1350909E2,3.2640927E2,9.027763E1,4.4283997E2,5.2071906E2,5.0071115E0,1.775031E2,6.101243E2,2.9096378E2,6.019046E1,9.871787E2,3.2473167E1,2.9405005E0],"tree_param":{"num_deleted":"0","num_feature":"14","num_nodes":"31","size_leaf_vector":"1"}},{"base_weights":[-4.8650764E-3,1.4396136E-2,-2.0852882E-1,-2.481262E-2,7.514576E-2,-3.9033175E-1,1.6605082E-1,1.1241372E-2,-1.1874699E-1,1.2354924E-1,-7.078996E-2,-7.2988707E-1,1.386033E-1,2.3615336E-1,-5.846142E-3,-9.6843264E-4,1.5064539E-2,-5.7425466E-3,-2.3888262E-2,3.4660306E-2,1.0400948E-2,3.5450637E-2,-1.0551625E-2,-8.9797966E-2,-5.412946E-2,3.2027327E-3,4.9872965E-2,1.4020351E-2,6.484033E-2,-3.3834808E-2,1.5120901E-2],"categories":[],"categories_nodes":[],"categories_segments":[],"categories_sizes":[],"default_left":[0,0,0,0,0,0,0,0,0,0,0,0,0,0,0,0,0,0,0,0,0,0,0,0,0,0,0,0,0,0,0],"id":27,"left_children":[1,3,5,7,9,11,13,15,17,19,21,23,25,27,29,-1,-1,-1,-1,-1,-1,-1,-1,-1,-1,-1,-1,-1,-1,-1,-1],"loss_changes":[2.2147196E1,1.22882185E1,3.328409E1,1.0620802E1,1.4302677E1,5.913799E1,1.9306002E0,6.6141043E0,6.3939753E0,6.5883675E0,7.490336E0,5.865288E0,4.9488144E0,4.408243E0,2.52396E0,0E0,0E0,0E0,0E0,0E0,0E0,0E0,0E0,0E0,0E0,0E0,0E0,0E0,0E0,0E0,0E0],"parents":[2147483647,0,0,1,1,2,2,3,3,4,4,5,5,6,6,7,7,8,8,9,9,10,10,11,11,12,12,13,13,14,14],"right_children":[2,4,6,8,10,12,14,16,18,20,22,24,26,28,30,-1,-1,-1,-1,-1,-1,-1,-1,-1,-1,-1,-1,-1,-1,-1,-1],"split_conditions":[2E0,8.695652E-2,3.000001E1,7E0,1E0,1E0,5.7894737E-1,2E0,2.1E1,3E0,2.6086956E-1,2.6666668E-1,5.217391E-1,4.5E-1,7.692308E-1,-9.6843264E-4,1.5064539E-2,-5.7425466E-3,-2.3888262E-2,3.4660306E-2,1.0400948E-2,3.5450637E-2,-1.0551625E-2,-8.9797966E-2,-5.412946E-2,3.2027327E-3,4.9872965E-2,1.4020351E-2,6.484033E-2,-3.3834808E-2,1.5120901E-2],"split_indices":[9,4,1,1,13,6,5,8,11,12,5,5,5,5,5,0,0,0,0,0,0,0,0,0,0,0,0,0,0,0,0],"split_type":[0,0,0,0,0,0,0,0,0,0,0,0,0,0,0,0,0,0,0,0,0,0,0,0,0,0,0,0,0,0,0],"sum_hessian":[5.643982E3,5.157178E3,4.8680362E2,3.1346304E3,2.022548E3,3.277079E2,1.590957E2,2.2658354E3,8.687951E2,1.5189132E3,5.036347E2,1.9935194E2,1.2835596E2,1.12743256E2,4.635245E1,1.9709152E3,2.9492017E2,5.761735E2,2.9262158E2,1.2099301E2,1.3979202E3,3.7323345E1,4.6631137E2,1.0341587E2,9.593607E1,9.9884895E1,2.8471056E1,9.254402E1,2.0199232E1,1.4500042E1,3.1852407E1],"tree_param":{"num_deleted":"0","num_feature":"14","num_nodes":"31","size_leaf_vector":"1"}},{"base_weights":[-2.4217956E-3,1.6259491E-2,-2.0169431E-1,1.357673E-1,-2.4636447E-2,-3.684648E-1,1.1972439E-1,1.9954237E-1,5.3454522E-2,3.540556E-2,-1.2015303E-1,-7.0566946E-1,1.2193452E-1,2.8737876E-1,-1.04704246E-1,1.715437E-2,4.606391E-2,-2.0454207E-2,1.291203E-2,9.173515E-3,-5.785914E-3,-1.6795484E-2,1.281546E-2,-7.971468E-2,6.346347E-2,5.9814673E-2,6.3585467E-3,4.0715825E-2,-9.567423E-3,-1.954501E-2,3.957986E-2],"categories":[],"categories_nodes":[],"categories_segments":[],"categories_sizes":[],"default_left":[0,0,0,0,0,0,0,0,0,0,0,0,0,0,0,0,0,0,0,0,0,0,0,0,0,0,0,0,0,0,0],"id":28,"left_children":[1,3,5,7,9,11,13,15,17,19,21,23,25,27,29,-1,-1,-1,-1,-1,-1,-1,-1,-1,-1,-1,-1,-1,-1,-1,-1],"loss_changes":[2.0965584E1,2.5169811E1,2.5919369E1,6.881893E0,2.2011082E1,5.2682404E1,6.263156E0,5.3265247E0,1.124263E1,1.2387695E1,1.7604229E1,2.3631645E1,3.5866132E0,4.4018164E0,3.3278527E0,0E0,0E0,0E0,0E0,0E0,0E0,0E0,0E0,0E0,0E0,0E0,0E0,0E0,0E0,0E0,0E0],"parents":[2147483647,0,0,1,1,2,2,3,3,4,4,5,5,6,6,7,7,8,8,9,9,10,10,11,11,12,12,13,13,14,14],"right_children":[2,4,6,8,10,12,14,16,18,20,22,24,26,28,30,-1,-1,-1,-1,-1,-1,-1,-1,-1,-1,-1,-1,-1,-1,-1,-1],"split_conditions":[2E0,1E0,3.000001E1,7E0,5E0,1E0,5E0,3.7E1,7E0,7E0,1.2E1,1E0,1E0,1E1,1.1E1,1.715437E-2,4.606391E-2,-2.0454207E-2,1.291203E-2,9.173515E-3,-5.785914E-3,-1.6795484E-2,1.281546E-2,-7.971468E-2,6.346347E-2,5.9814673E-2,6.3585467E-3,4.0715825E-2,-9.567423E-3,-1.954501E-2,3.957986E-2],"split_indices":[9,7,1,3,3,6,0,11,12,0,12,7,7,12,12,0,0,0,0,0,0,0,0,0,0,0,0,0,0,0,0],"split_type":[0,0,0,0,0,0,0,0,0,0,0,0,0,0,0,0,0,0,0,0,0,0,0,0,0,0,0,0,0,0,0],"sum_hessian":[5.6299907E3,5.148272E3,4.8171887E2,1.3119928E3,3.836279E3,3.1706235E2,1.6465652E2,7.3843604E2,5.7355676E2,2.355951E3,1.4803282E3,1.8761618E2,1.2944617E2,9.408898E1,7.056754E1,6.684155E2,7.002048E1,1.2968123E2,4.4387552E2,1.4688301E3,8.871208E2,1.241626E3,2.3870235E2,1.7600864E2,1.1607548E1,1.3119662E1,1.1632651E2,7.162815E1,2.2460835E1,6.0252666E1,1.03148775E1],"tree_param":{"num_deleted":"0","num_feature":"14","num_nodes":"31","size_leaf_vector":"1"}},{"base_weights":[5.4799666E-4,1.8646654E-2,-1.97933E-1,1.313362E-1,-2.0644959E-2,-3.1347233E-1,1.0960088E-1,1.9321175E-1,2.3250042E-2,2.3579687E-2,-9.18417E-2,-7.4728256E-1,-9.315791E-2,-6.266841E-2,4.0215406E-1,3.9940577E-2,1.044356E-2,-5.401108E-3,2.412138E-2,7.485206E-3,-6.2412485E-3,-4.035297E-2,-3.6758804E-3,-8.608998E-2,-5.989022E-2,7.3213824E-3,-5.8805402E-2,-1.169426E-2,6.524193E-2,6.2531225E-2,-1.5069256E-2],"categories":[],"categories_nodes":[],"categories_segments":[],"categories_sizes":[],"default_left":[0,0,0,0,0,0,0,0,0,0,0,0,0,0,0,0,0,0,0,0,0,0,0,0,0,0,0,0,0,0,0],"id":29,"left_children":[1,3,5,7,9,11,13,15,17,19,21,23,25,27,29,-1,-1,-1,-1,-1,-1,-1,-1,-1,-1,-1,-1,-1,-1,-1,-1],"loss_changes":[2.0280941E1,2.2911665E1,1.6798235E1,8.942253E0,1.2084139E1,3.273235E1,6.556043E0,1.5528608E1,8.233596E0,1.0444073E1,2.5230947E1,1.4307709E0,1.8877995E1,3.27526E0,6.035948E0,0E0,0E0,0E0,0E0,0E0,0E0,0E0,0E0,0E0,0E0,0E0,0E0,0E0,0E0,0E0,0E0],"parents":[2147483647,0,0,1,1,2,2,3,3,4,4,5,5,6,6,7,7,8,8,9,9,10,10,11,11,12,12,13,13,14,14],"right_children":[2,4,6,8,10,12,14,16,18,20,22,24,26,28,30,-1,-1,-1,-1,-1,-1,-1,-1,-1,-1,-1,-1,-1,-1,-1,-1],"split_conditions":[2E0,1E0,1E0,3.1E1,5E0,2.1E1,7E0,1E0,3.7E1,7E0,1.25E-1,5E0,3.4E1,5.294118E-1,3.5E1,3.9940577E-2,1.044356E-2,-5.401108E-3,2.412138E-2,7.485206E-3,-6.2412485E-3,-4.035297E-2,-3.6758804E-3,-8.608998E-2,-5.989022E-2,7.3213824E-3,-5.8805402E-2,-1.169426E-2,6.524193E-2,6.2531225E-2,-1.5069256E-2],"split_indices":[9,7,7,11,3,11,0,9,11,0,5,3,11,4,11,0,0,0,0,0,0,0,0,0,0,0,0,0,0,0,0],"split_type":[0,0,0,0,0,0,0,0,0,0,0,0,0,0,0,0,0,0,0,0,0,0,0,0,0,0,0,0,0,0,0],"sum_hessian":[5.643738E3,5.1729443E3,4.7079324E2,1.3367532E3,3.8361912E3,3.4220776E2,1.285855E2,8.4959955E2,4.8715366E2,2.3667358E3,1.4694556E3,1.1445271E2,2.2775505E2,8.142459E1,4.7160904E1,2.5464793E2,5.949516E2,3.6021964E2,1.2693404E2,1.482771E3,8.839647E2,2.1973775E2,1.2497178E3,6.2099854E1,5.235286E1,1.7109068E2,5.666436E1,7.645799E1,4.9665933E0,3.350531E1,1.3655593E1],"tree_param":{"num_deleted":"0","num_feature":"14","num_nodes":"31","size_leaf_vector":"1"}},{"base_weights":[-7.6033017E-3,8.094263E-3,-1.8460374E-1,1.19848184E-1,-3.1116817E-2,-3.331398E-1,2.078125E-1,3.7018776E-1,9.780722E-2,-5.6464244E-2,5.4430973E-2,-6.468363E-1,-1.7723879E-2,6.3237213E-3,5.209593E-1,6.1267942E-2,7.920105E-3,1.38793485E-2,-1.6525183E-3,-4.3156706E-3,-2.4764229E-2,-3.0581297E-3,1.7164608E-2,-7.5200655E-2,5.939385E-2,1.0378436E-2,-1.8231483E-2,-8.1608765E-2,4.4716946E-3,1.8997562E-1,3.354742E-2],"categories":[],"categories_nodes":[],"categories_segments":[],"categories_sizes":[],"default_left":[0,0,0,0,0,0,0,0,0,0,0,0,0,0,0,0,0,0,0,0,0,0,0,0,0,0,0,0,0,0,0],"id":30,"left_children":[1,3,5,7,9,11,13,15,17,19,21,23,25,27,29,-1,-1,-1,-1,-1,-1,-1,-1,-1,-1,-1,-1,-1,-1,-1,-1],"loss_changes":[1.5608132E1,2.2616411E1,2.6742521E1,7.360525E0,8.288215E0,3.287228E1,7.9636703E0,7.5804157E0,5.7821846E0,7.489312E0,8.7128105E0,2.2186447E1,3.3537014E0,2.4944284E0,1.2002661E1,0E0,0E0,0E0,0E0,0E0,0E0,0E0,0E0,0E0,0E0,0E0,0E0,0E0,0E0,0E0,0E0],"parents":[2147483647,0,0,1,1,2,2,3,3,4,4,5,5,6,6,7,7,8,8,9,9,10,10,11,11,12,12,13,13,14,14],"right_children":[2,4,6,8,10,12,14,16,18,20,22,24,26,28,30,-1,-1,-1,-1,-1,-1,-1,-1,-1,-1,-1,-1,-1,-1,-1,-1],"split_conditions":[2E0,1E0,1E0,4E0,2.3529412E-1,3.000001E1,7E0,1E0,1E0,1.2E1,8E0,1E0,5E0,1E0,1E0,6.1267942E-2,7.920105E-3,1.38793485E-2,-1.6525183E-3,-4.3156706E-3,-2.4764229E-2,-3.0581297E-3,1.7164608E-2,-7.5200655E-2,5.939385E-2,1.0378436E-2,-1.8231483E-2,-8.1608765E-2,4.4716946E-3,1.8997562E-1,3.354742E-2],"split_indices":[9,7,7,12,4,1,0,8,13,0,12,6,0,11,6,0,0,0,0,0,0,0,0,0,0,0,0,0,0,0,0],"split_type":[0,0,0,0,0,0,0,0,0,0,0,0,0,0,0,0,0,0,0,0,0,0,0,0,0,0,0,0,0,0,0],"sum_hessian":[5.615978E3,5.1593657E3,4.5661227E2,1.33954E3,3.8198257E3,3.313441E2,1.25268196E2,1.0711709E2,1.232423E3,2.9469868E3,8.72839E2,1.6559804E2,1.6574603E2,7.684429E1,4.8423904E1,5.7824196E1,4.9292892E1,9.070476E2,3.2537537E2,2.7563484E3,1.9063843E2,5.0634363E2,3.6649536E2,1.5302159E2,1.2576457E1,9.5565125E1,7.0180916E1,2.5239246E0,7.4320366E1,4.645993E0,4.3777912E1],"tree_param":{"num_deleted":"0","num_feature":"14","num_nodes":"31","size_leaf_vector":"1"}},{"base_weights":[-3.9567432E-4,8.284869E-2,-1.9024134E-2,1.7847823E-1,-3.0201493E-2,-6.4877585E-2,3.3435863E-2,2.4553046E-1,-1.7554417E-2,-1.14605926E-1,2.6055184E-1,-3.6143076E-1,-3.2199148E-2,4.5679295E-1,-1.556359E-2,3.8112223E-2,1.3808797E-2,6.2391013E-3,-4.2377286E-2,-1.7938318E-2,1.1735777E-2,-5.0267326E-3,4.835447E-2,-6.2127758E-2,-2.0593127E-2,-1.2554018E-3,-3.0558368E-2,3.4942124E-2,8.224394E-2,1.0083515E-2,-4.9723177E-3],"categories":[],"categories_nodes":[],"categories_segments":[],"categories_sizes":[],"default_left":[0,0,0,0,0,0,0,0,0,0,0,0,0,0,0,0,0,0,0,0,0,0,0,0,0,0,0,0,0,0,0],"id":31,"left_children":[1,3,5,7,9,11,13,15,17,19,21,23,25,27,29,-1,-1,-1,-1,-1,-1,-1,-1,-1,-1,-1,-1,-1,-1,-1,-1],"loss_changes":[8.710931E0,1.1110302E1,1.1043666E1,7.320709E0,1.1602752E1,2.372762E1,4.4431213E1,5.9905815E0,4.663835E0,5.523168E0,7.3991137E0,9.692583E0,1.1852468E1,8.4354515E0,7.640508E0,0E0,0E0,0E0,0E0,0E0,0E0,0E0,0E0,0E0,0E0,0E0,0E0,0E0,0E0,0E0,0E0],"parents":[2147483647,0,0,1,1,2,2,3,3,4,4,5,5,6,6,7,7,8,8,9,9,10,10,11,11,12,12,13,13,14,14],"right_children":[2,4,6,8,10,12,14,16,18,20,22,24,26,28,30,-1,-1,-1,-1,-1,-1,-1,-1,-1,-1,-1,-1,-1,-1,-1,-1],"split_conditions":[1E0,2.9E1,2E0,1E0,3.7E1,2E0,2E0,1E0,1E1,7.058824E-1,1E0,1E1,2E0,3.3E1,4E0,3.8112223E-2,1.3808797E-2,6.2391013E-3,-4.2377286E-2,-1.7938318E-2,1.1735777E-2,-5.0267326E-3,4.835447E-2,-6.2127758E-2,-2.0593127E-2,-1.2554018E-3,-3.0558368E-2,3.4942124E-2,8.224394E-2,1.0083515E-2,-4.9723177E-3],"split_indices":[9,11,10,13,11,0,0,7,0,5,6,11,9,11,0,0,0,0,0,0,0,0,0,0,0,0,0,0,0,0,0],"split_type":[0,0,0,0,0,0,0,0,0,0,0,0,0,0,0,0,0,0,0,0,0,0,0,0,0,0,0,0,0,0,0],"sum_hessian":[5.6153506E3,1.0261924E3,4.589158E3,5.556161E2,4.7057626E2,2.4486458E3,2.1405125E3,4.138185E2,1.4179756E2,3.6517374E2,1.0540253E2,2.4204591E2,2.2065999E3,2.211807E2,1.9193319E3,1.8181802E2,2.3200047E2,1.1918741E2,2.2610155E1,2.856351E2,7.9538635E1,4.4354073E1,6.1048454E1,8.949698E1,1.5254893E2,2.059642E3,1.4695782E2,1.72486E2,4.8694702E1,4.3502676E2,1.484305E3],"tree_param":{"num_deleted":"0","num_feature":"14","num_nodes":"31","size_leaf_vector":"1"}},{"base_weights":[-2.0621405E-3,1.154433E-2,-1.5973097E-1,9.4777584E-2,-1.8129004E-2,-3.2617506E-1,1.2419687E-1,5.1673963E-3,1.473972E-1,-4.4036627E-2,6.882014E-2,-6.4078736E-1,5.619293E-2,3.4139225E-1,7.201607E-2,3.7922297E-2,-3.0746798E-3,2.192806E-2,1.5546952E-3,-9.65768E-3,2.8737606E-3,3.8685624E-3,4.4938087E-2,-7.366879E-2,3.905379E-2,6.1086923E-2,-8.7376795E-4,4.4875916E-2,-8.112832E-2,2.6995651E-3,3.910997E-2],"categories":[],"categories_nodes":[],"categories_segments":[],"categories_sizes":[],"default_left":[0,0,0,0,0,0,0,0,0,0,0,0,0,0,0,0,0,0,0,0,0,0,0,0,0,0,0,0,0,0,0],"id":32,"left_children":[1,3,5,7,9,11,13,15,17,19,21,23,25,27,29,-1,-1,-1,-1,-1,-1,-1,-1,-1,-1,-1,-1,-1,-1,-1,-1],"loss_changes":[1.2023656E1,1.2744713E1,2.1081764E1,6.393816E0,8.572907E0,3.383591E1,1.8485138E0,6.765679E0,8.094345E0,1.1212084E1,1.0002527E1,1.5540985E1,4.6062016E0,4.2931147E0,1.9219253E0,0E0,0E0,0E0,0E0,0E0,0E0,0E0,0E0,0E0,0E0,0E0,0E0,0E0,0E0,0E0,0E0],"parents":[2147483647,0,0,1,1,2,2,3,3,4,4,5,5,6,6,7,7,8,8,9,9,10,10,11,11,12,12,13,13,14,14],"right_children":[2,4,6,8,10,12,14,16,18,20,22,24,26,28,30,-1,-1,-1,-1,-1,-1,-1,-1,-1,-1,-1,-1,-1,-1,-1,-1],"split_conditions":[2E0,1E0,3.000001E1,4E0,2.3529412E-1,1E0,6E0,4E0,8E0,1E0,3.8E1,1E0,1E0,2E0,2E0,3.7922297E-2,-3.0746798E-3,2.192806E-2,1.5546952E-3,-9.65768E-3,2.8737606E-3,3.8685624E-3,4.4938087E-2,-7.366879E-2,3.905379E-2,6.1086923E-2,-8.7376795E-4,4.4875916E-2,-8.112832E-2,2.6995651E-3,3.910997E-2],"split_indices":[9,7,1,1,4,6,12,12,1,10,11,7,7,8,8,0,0,0,0,0,0,0,0,0,0,0,0,0,0,0,0],"split_type":[0,0,0,0,0,0,0,0,0,0,0,0,0,0,0,0,0,0,0,0,0,0,0,0,0,0,0,0,0,0,0],"sum_hessian":[5.6027485E3,5.158508E3,4.4424103E2,1.355147E3,3.8033608E3,2.799689E2,1.642721E2,5.017592E2,8.5338776E2,2.930634E3,8.7272675E2,1.5322203E2,1.2674688E2,3.0747484E1,1.3352461E2,4.3117733E1,4.5864145E2,5.518576E2,3.0153015E2,1.7017264E3,1.2289076E3,8.0971173E2,6.3014984E1,1.404478E2,1.2774231E1,1.240111E1,1.1434577E2,2.8686167E1,2.0613174E0,1.1796518E2,1.5559438E1],"tree_param":{"num_deleted":"0","num_feature":"14","num_nodes":"31","size_leaf_vector":"1"}},{"base_weights":[4.13904E-3,-3.0850144E-2,5.8774494E-2,6.004573E-3,-1.995679E-1,4.4996276E-2,2.8137675E-1,2.7684944E-2,-2.0896907E-1,-5.137226E-1,-1.2303587E-1,9.0096205E-2,-4.6334796E-2,3.5121343E-1,-3.5745206E-1,1.5554448E-2,3.224543E-4,-4.6436924E-2,8.326142E-3,-6.074777E-2,-1.4121807E-2,-2.3162835E-3,-3.8080133E-2,6.9663613E-3,4.0051434E-2,-1.1957815E-2,8.00953E-3,5.289283E-2,2.0573951E-2,1.07099295E-1,-6.74318E-2],"categories":[],"categories_nodes":[],"categories_segments":[],"categories_sizes":[],"default_left":[0,0,0,0,0,0,0,0,0,0,0,0,0,0,0,0,0,0,0,0,0,0,0,0,0,0,0,0,0,0,0],"id":33,"left_children":[1,3,5,7,9,11,13,15,17,19,21,23,25,27,29,-1,-1,-1,-1,-1,-1,-1,-1,-1,-1,-1,-1,-1,-1,-1,-1],"loss_changes":[1.0738096E1,2.129385E1,6.7131186E0,1.3108873E1,1.4697647E1,8.515217E0,5.819605E0,7.9893713E0,1.9270397E1,4.1033707E0,1.2734064E1,8.747582E0,6.3408284E0,2.8786669E0,6.6394367E0,0E0,0E0,0E0,0E0,0E0,0E0,0E0,0E0,0E0,0E0,0E0,0E0,0E0,0E0,0E0,0E0],"parents":[2147483647,0,0,1,1,2,2,3,3,4,4,5,5,6,6,7,7,8,8,9,9,10,10,11,11,12,12,13,13,14,14],"right_children":[2,4,6,8,10,12,14,16,18,20,22,24,26,28,30,-1,-1,-1,-1,-1,-1,-1,-1,-1,-1,-1,-1,-1,-1,-1,-1],"split_conditions":[8.695652E-2,8E0,3.8E1,2E0,9.52381E-2,3.4E1,1E1,1E0,3.000001E1,1E0,3.1E1,2.2E1,3.6E1,5E0,2E0,1.5554448E-2,3.224543E-4,-4.6436924E-2,8.326142E-3,-6.074777E-2,-1.4121807E-2,-2.3162835E-3,-3.8080133E-2,6.9663613E-3,4.0051434E-2,-1.1957815E-2,8.00953E-3,5.289283E-2,2.0573951E-2,1.07099295E-1,-6.74318E-2],"split_indices":[4,3,11,9,5,11,1,9,1,13,11,11,11,0,12,0,0,0,0,0,0,0,0,0,0,0,0,0,0,0,0],"split_type":[0,0,0,0,0,0,0,0,0,0,0,0,0,0,0,0,0,0,0,0,0,0,0,0,0,0,0,0,0,0,0],"sum_hessian":[5.615239E3,3.4233323E3,2.1919067E3,2.810394E3,6.1293823E2,2.0652764E3,1.2663045E2,2.5537192E3,2.5667468E2,1.1895009E2,4.9398813E2,1.382568E3,6.8270825E2,1.1455728E2,1.2073161E1,4.092302E2,2.144489E3,1.366542E2,1.2002048E2,9.4527756E1,2.4422335E1,3.5682404E2,1.3716411E2,1.2983325E3,8.4235466E1,4.3231448E2,2.5039378E2,5.0378117E1,6.417917E1,1.7598276E0,1.03133335E1],"tree_param":{"num_deleted":"0","num_feature":"14","num_nodes":"31","size_leaf_vector":"1"}},{"base_weights":[-5.871222E-3,3.6247134E-2,-4.825945E-2,5.834301E-2,-7.272624E-2,-1.03061356E-1,8.517333E-2,1.1141721E-1,1.2179266E-2,-1.4772075E-1,9.1055885E-2,-7.838479E-2,-2.4183354E-1,1.1054414E-1,-1.10130675E-1,4.61295E-3,2.204726E-2,-7.230454E-3,8.554871E-3,-6.5994384E-3,-3.0022843E-2,1.4627394E-2,-6.774895E-2,-1.5534498E-2,-1.3098996E-3,6.532457E-2,-2.7713332E-2,8.924632E-3,3.5903316E-2,8.4122885E-3,-3.9335176E-2],"categories":[],"categories_nodes":[],"categories_segments":[],"categories_sizes":[],"default_left":[0,0,0,0,0,1,0,0,0,0,0,0,0,0,0,0,0,0,0,0,0,0,0,0,0,0,0,0,0,0,0],"id":34,"left_children":[1,3,5,7,9,11,13,15,17,19,21,23,25,27,29,-1,-1,-1,-1,-1,-1,-1,-1,-1,-1,-1,-1,-1,-1,-1,-1],"loss_changes":[1.0020972E1,6.7836514E0,2.0464886E1,5.73541E0,5.8488913E0,6.7732983E0,4.0504713E0,7.7440042E0,7.775207E0,4.0466256E0,6.457718E0,8.466607E0,9.6274605E0,3.7878733E0,5.215652E0,0E0,0E0,0E0,0E0,0E0,0E0,0E0,0E0,0E0,0E0,0E0,0E0,0E0,0E0,0E0,0E0],"parents":[2147483647,0,0,1,1,2,2,3,3,4,4,5,5,6,6,7,7,8,8,9,9,10,10,11,11,12,12,13,13,14,14],"right_children":[2,4,6,8,10,12,14,16,18,20,22,24,26,28,30,-1,-1,-1,-1,-1,-1,-1,-1,-1,-1,-1,-1,-1,-1,-1,-1],"split_conditions":[1E0,1E1,2E0,4E0,1E1,9E0,2.35E3,3E0,8E0,7E0,3.8E1,4E0,1.64E3,1.1E1,6E0,4.61295E-3,2.204726E-2,-7.230454E-3,8.554871E-3,-6.5994384E-3,-3.0022843E-2,1.4627394E-2,-6.774895E-2,-1.5534498E-2,-1.3098996E-3,6.532457E-2,-2.7713332E-2,8.924632E-3,3.5903316E-2,8.4122885E-3,-3.9335176E-2],"split_indices":[8,0,8,3,12,1,2,10,12,12,11,1,2,1,3,0,0,0,0,0,0,0,0,0,0,0,0,0,0,0,0],"split_type":[0,0,0,0,0,0,0,0,0,0,0,0,0,0,0,0,0,0,0,0,0,0,0,0,0,0,0,0,0,0,0],"sum_hessian":[5.610996E3,2.81453E3,2.796466E3,2.3404382E3,4.7409192E2,1.9824753E3,8.139908E2,1.088073E3,1.2523652E3,3.252573E2,1.4883463E2,1.684501E3,2.979743E2,7.20791E2,9.319979E1,6.8150336E2,4.0656964E2,5.8210016E2,6.70265E2,2.1270491E2,1.1255237E2,1.3961342E2,9.2212E0,7.724923E2,9.120087E2,1.0641348E1,2.8733298E2,6.6514136E2,5.564966E1,5.5699806E1,3.7499985E1],"tree_param":{"num_deleted":"0","num_feature":"14","num_nodes":"31","size_leaf_vector":"1"}},{"base_weights":[-4.4890773E-3,1.7614786E-2,-8.147129E-2,3.0808154E-2,-1.2285259E-1,-2.1290728E-1,-1.3546429E-2,3.6557972E-2,-4.0067607E-1,4.2559262E-2,-3.1427714E-1,-3.6352914E-2,-3.881729E-1,-6.636506E-2,1.13115415E-1,4.735693E-3,-9.306766E-3,-4.9593564E-2,9.200951E-2,-8.432083E-2,6.053052E-3,-7.166208E-2,1.4563784E-2,3.0798275E-2,-9.087378E-3,-4.1316863E-2,1.1877068E-1,-3.6606397E-3,-2.9599035E-2,2.1728555E-2,-2.6086757E-2],"categories":[],"categories_nodes":[],"categories_segments":[],"categories_sizes":[],"default_left":[0,0,0,0,1,0,0,0,0,0,0,0,0,1,0,0,0,0,0,0,0,0,0,0,0,0,0,0,0,0,0],"id":35,"left_children":[1,3,5,7,9,11,13,15,17,19,21,23,25,27,29,-1,-1,-1,-1,-1,-1,-1,-1,-1,-1,-1,-1,-1,-1,-1,-1],"loss_changes":[9.55145E0,8.086111E0,1.1176191E1,9.907555E0,1.1876381E1,1.3185392E1,5.5375896E0,5.514125E0,7.064353E0,3.2643752E0,3.2263237E1,4.0380626E0,8.918617E0,3.979683E0,9.547931E0,0E0,0E0,0E0,0E0,0E0,0E0,0E0,0E0,0E0,0E0,0E0,0E0,0E0,0E0,0E0,0E0],"parents":[2147483647,0,0,1,1,2,2,3,3,4,4,5,5,6,6,7,7,8,8,9,9,10,10,11,11,12,12,13,13,14,14],"right_children":[2,4,6,8,10,12,14,16,18,20,22,24,26,28,30,-1,-1,-1,-1,-1,-1,-1,-1,-1,-1,-1,-1,-1,-1,-1,-1],"split_conditions":[9E0,2E0,1.5789473E-1,1.8E1,2E0,2E0,1E1,2.64E3,5.2380955E-1,2E0,1E0,1E0,1.4E1,1.2E1,1E0,4.735693E-3,-9.306766E-3,-4.9593564E-2,9.200951E-2,-8.432083E-2,6.053052E-3,-7.166208E-2,1.4563784E-2,3.0798275E-2,-9.087378E-3,-4.1316863E-2,1.1877068E-1,-3.6606397E-3,-2.9599035E-2,2.1728555E-2,-2.6086757E-2],"split_indices":[0,9,5,3,1,3,12,2,5,12,6,9,1,1,13,0,0,0,0,0,0,0,0,0,0,0,0,0,0,0,0],"split_type":[0,0,0,0,0,0,0,0,0,0,0,0,0,0,0,0,0,0,0,0,0,0,0,0,0,0,0,0,0,0,0],"sum_hessian":[5.6113604E3,4.360192E3,1.2511686E3,3.9865378E3,3.7365405E2,4.255623E2,8.2560626E2,3.9350164E3,5.152148E1,2.0086354E2,1.7279051E2,2.126032E2,2.1295908E2,5.8297766E2,2.426286E2,3.632991E3,3.020253E2,4.8638016E1,2.8834667E0,3.0811265E0,1.9778242E2,9.186599E1,8.092452E1,2.8425879E1,1.8417732E2,2.1036028E2,2.5987957E0,5.1712006E2,6.585759E1,1.900974E2,5.2531193E1],"tree_param":{"num_deleted":"0","num_feature":"14","num_nodes":"31","size_leaf_vector":"1"}},{"base_weights":[-9.8655615E-3,-4.8316337E-2,2.2992691E-2,-2.7367648E-2,-3.4969044E-1,-3.5868853E-2,9.0352535E-2,6.328813E-2,-7.3349215E-2,-3.7798473E-1,1.5172444E-1,2.28744E-3,-1.36917E-1,1.5955397E-1,1.3645077E-2,-9.462527E-4,1.3018618E-2,-3.8375028E-3,-1.7287975E-2,-4.847159E-2,-1.6783541E-2,-3.5969738E-3,1.9188711E-2,1.2868068E-2,-1.7491171E-2,4.0494245E-2,1.038221E-2,-4.1472353E-3,2.1224165E-2],"categories":[],"categories_nodes":[],"categories_segments":[],"categories_sizes":[],"default_left":[0,0,0,0,0,1,0,0,0,0,0,0,0,0,0,0,0,0,0,0,0,0,0,0,0,0,0,0,0],"id":36,"left_children":[1,3,5,7,9,11,13,15,17,19,-1,21,23,25,27,-1,-1,-1,-1,-1,-1,-1,-1,-1,-1,-1,-1,-1,-1],"loss_changes":[7.10139E0,1.6341368E1,1.20208E1,1.01034155E1,9.460482E0,6.2396483E0,7.5023317E0,3.9716845E0,5.590226E0,3.65378E0,0E0,8.534626E0,4.4988194E0,1.0121113E1,7.360224E0,0E0,0E0,0E0,0E0,0E0,0E0,0E0,0E0,0E0,0E0,0E0,0E0,0E0,0E0],"parents":[2147483647,0,0,1,1,2,2,3,3,4,4,5,5,6,6,7,7,8,8,9,9,11,11,12,12,13,13,14,14],"right_children":[2,4,6,8,10,12,14,16,18,20,-1,22,24,26,28,-1,-1,-1,-1,-1,-1,-1,-1,-1,-1,-1,-1,-1,-1],"split_conditions":[2.7272728E-1,1.3E1,8E0,1E0,2.1428572E-1,7E0,1.9E1,2E0,3.2E1,3E0,1.5172444E-1,2E0,2E0,1E0,3.7E1,-9.462527E-4,1.3018618E-2,-3.8375028E-3,-1.7287975E-2,-4.847159E-2,-1.6783541E-2,-3.5969738E-3,1.9188711E-2,1.2868068E-2,-1.7491171E-2,4.0494245E-2,1.038221E-2,-4.1472353E-3,2.1224165E-2],"split_indices":[5,3,12,3,4,1,11,10,11,10,0,8,12,9,11,0,0,0,0,0,0,0,0,0,0,0,0,0,0],"split_type":[0,0,0,0,0,0,0,0,0,0,0,0,0,0,0,0,0,0,0,0,0,0,0,0,0,0,0,0,0],"sum_hessian":[5.6188647E3,2.5888816E3,3.0299834E3,2.4216426E3,1.6723897E2,1.6172434E3,1.41274E3,8.14811E2,1.6068315E3,1.6552785E2,1.7111157E0,1.1746622E3,4.425811E2,7.4214014E2,6.7059985E2,3.907426E2,4.2406836E2,1.1900453E3,4.167863E2,1.0890857E2,5.6619278E1,9.7811066E2,1.9655162E2,5.509049E1,3.874906E2,1.3619687E2,6.0594324E2,5.2553644E2,1.450634E2],"tree_param":{"num_deleted":"0","num_feature":"14","num_nodes":"29","size_leaf_vector":"1"}},{"base_weights":[3.2393534E-3,1.0870056E-1,-2.0916134E-2,2.1963836E-1,-2.4211999E-2,-4.2793393E-2,1.1541352E-1,1.06939614E-1,3.515991E-1,-8.4327616E-2,2.6231232E-1,-1.07808754E-1,-1.667641E-4,1.6966909E-1,-7.327083E-2,3.6663007E-2,2.4123492E-3,3.8522776E-2,-1.7752795E-2,-2.3106579E-2,2.6339854E-3,1.8435892E-3,6.0740232E-2,-3.260367E-3,-2.511943E-2,3.923909E-3,-6.338133E-3,7.7605094E-3,2.911277E-2,1.2584331E-2,-2.540938E-2],"categories":[],"categories_nodes":[],"categories_segments":[],"categories_sizes":[],"default_left":[0,0,0,0,0,0,0,0,0,0,0,0,0,0,0,0,0,0,0,0,0,0,0,0,0,0,0,0,0,0,0],"id":37,"left_children":[1,3,5,7,9,11,13,15,17,19,21,23,25,27,29,-1,-1,-1,-1,-1,-1,-1,-1,-1,-1,-1,-1,-1,-1,-1,-1],"loss_changes":[1.4285625E1,1.5414835E1,1.3613631E1,8.435175E0,8.226967E0,1.0898705E1,6.474431E0,6.6307516E0,4.7303085E0,6.4123015E0,6.9616404E0,1.6784882E1,5.9218345E0,5.4628153E0,5.1327276E0,0E0,0E0,0E0,0E0,0E0,0E0,0E0,0E0,0E0,0E0,0E0,0E0,0E0,0E0,0E0,0E0],"parents":[2147483647,0,0,1,1,2,2,3,3,4,4,5,5,6,6,7,7,8,8,9,9,10,10,11,11,12,12,13,13,14,14],"right_children":[2,4,6,8,10,12,14,16,18,20,22,24,26,28,30,-1,-1,-1,-1,-1,-1,-1,-1,-1,-1,-1,-1,-1,-1,-1,-1],"split_conditions":[1E0,2.9E1,2E0,8E0,4.5454547E-1,1.6666667E-1,1E0,2E0,2.5E3,3.5E1,4E0,3E0,1E0,7.1428575E-2,3.3333335E-2,3.6663007E-2,2.4123492E-3,3.8522776E-2,-1.7752795E-2,-2.3106579E-2,2.6339854E-3,1.8435892E-3,6.0740232E-2,-3.260367E-3,-2.511943E-2,3.923909E-3,-6.338133E-3,7.7605094E-3,2.911277E-2,1.2584331E-2,-2.540938E-2],"split_indices":[9,11,8,11,4,5,13,11,2,11,3,3,8,4,4,0,0,0,0,0,0,0,0,0,0,0,0,0,0,0,0],"split_type":[0,0,0,0,0,0,0,0,0,0,0,0,0,0,0,0,0,0,0,0,0,0,0,0,0,0,0,0,0,0,0],"sum_hessian":[5.605884E3,1.0440654E3,4.5618184E3,5.6872046E2,4.75345E2,3.9315896E3,6.302287E2,3.077243E2,2.6099615E2,3.934922E2,8.185283E1,1.5563186E3,2.375271E3,4.8955853E2,1.406702E2,7.357733E1,2.3414697E2,2.4565547E2,1.534068E1,1.6870798E2,2.247842E2,4.8576824E1,3.3276005E1,1.02167957E3,5.3463904E2,1.4634095E3,9.118614E2,2.794091E2,2.1014944E2,6.709369E1,7.357651E1],"tree_param":{"num_deleted":"0","num_feature":"14","num_nodes":"31","size_leaf_vector":"1"}},{"base_weights":[1.3758863E-4,7.853994E-2,-1.8000482E-2,1.3749053E-1,-9.487749E-2,-6.538035E-2,3.499127E-2,2.763727E-1,4.979152E-2,-1.4984813E-1,2.7037716E-1,-3.1132355E-1,-3.8409427E-2,4.2695653E-1,-1.1771382E-2,7.164108E-2,2.1931408E-2,-1.325126E-2,1.27463015E-2,1.1546721E-2,-2.8043265E-2,6.68086E-2,-3.1120023E-3,-4.5614634E-2,-9.955343E-3,-1.1872655E-2,8.1000566E-5,2.2394352E-2,6.5619946E-2,9.966273E-3,-4.472643E-3],"categories":[],"categories_nodes":[],"categories_segments":[],"categories_sizes":[],"default_left":[0,0,0,0,0,0,0,0,0,0,0,0,0,0,0,0,0,0,0,0,0,0,0,0,0,0,0,0,0,0,0],"id":38,"left_children":[1,3,5,7,9,11,13,15,17,19,21,23,25,27,29,-1,-1,-1,-1,-1,-1,-1,-1,-1,-1,-1,-1,-1,-1,-1,-1],"loss_changes":[7.984922E0,1.0797873E1,1.1451435E1,9.580577E0,5.4260616E0,1.5960134E1,3.947184E1,7.4925556E0,6.8709908E0,8.132057E0,4.2708187E0,7.248253E0,6.8388615E0,1.0535229E1,7.072472E0,0E0,0E0,0E0,0E0,0E0,0E0,0E0,0E0,0E0,0E0,0E0,0E0,0E0,0E0,0E0,0E0],"parents":[2147483647,0,0,1,1,2,2,3,3,4,4,5,5,6,6,7,7,8,8,9,9,10,10,11,11,12,12,13,13,14,14],"right_children":[2,4,6,8,10,12,14,16,18,20,22,24,26,28,30,-1,-1,-1,-1,-1,-1,-1,-1,-1,-1,-1,-1,-1,-1,-1,-1],"split_conditions":[1E0,1E0,2E0,6E0,5.555556E-1,2E0,2E0,1E0,4E0,2.9166666E-1,9E-1,4.1379312E-1,1.6666667E-1,2.0833333E-1,4E0,7.164108E-2,2.1931408E-2,-1.325126E-2,1.27463015E-2,1.1546721E-2,-2.8043265E-2,6.68086E-2,-3.1120023E-3,-4.5614634E-2,-9.955343E-3,-1.1872655E-2,8.1000566E-5,2.2394352E-2,6.5619946E-2,9.966273E-3,-4.472643E-3],"split_indices":[9,13,10,12,4,0,0,3,0,5,5,5,5,5,0,0,0,0,0,0,0,0,0,0,0,0,0,0,0,0,0],"split_type":[0,0,0,0,0,0,0,0,0,0,0,0,0,0,0,0,0,0,0,0,0,0,0,0,0,0,0,0,0,0,0],"sum_hessian":[5.613016E3,1.053951E3,4.559065E3,7.8672363E2,2.6722742E2,2.40686E3,2.1522048E3,3.0367133E2,4.830523E2,2.3278339E2,3.444404E1,2.3681766E2,2.1700425E3,2.2853027E2,1.9236744E3,3.3530125E1,2.701412E2,1.4410796E2,3.3894434E2,7.6819984E1,1.559634E2,1.4327953E1,2.0116085E1,1.3995378E2,9.686387E1,7.113166E2,1.458726E3,1.2224732E2,1.0628294E2,4.3859305E2,1.4850814E3],"tree_param":{"num_deleted":"0","num_feature":"14","num_nodes":"31","size_leaf_vector":"1"}},{"base_weights":[5.329026E-4,3.7594233E-2,-3.649287E-2,5.2802693E-3,8.456653E-2,-1.1711208E-2,-1.9060105E-1,5.8648136E-2,-1.0115206E-1,-7.0298314E-2,1.376743E-1,5.5301078E-3,-2.5740635E-1,-5.794087E-1,-1.4682874E-1,9.379214E-3,-7.3520886E-3,-3.0025333E-2,-3.281282E-3,-9.183275E-3,2.9192103E-2,1.31189795E-2,1.2876295E-1,-2.7158977E-3,7.4876356E-3,-5.8796015E-3,-6.1710097E-2,-6.904042E-2,-1.0645836E-2,-1.5629321E-2,8.994058E-2],"categories":[],"categories_nodes":[],"categories_segments":[],"categories_sizes":[],"default_left":[0,0,0,0,0,0,0,0,0,1,0,0,1,0,0,0,0,0,0,0,0,0,0,0,0,0,0,0,0,0,0],"id":39,"left_children":[1,3,5,7,9,11,13,15,17,19,21,23,25,27,29,-1,-1,-1,-1,-1,-1,-1,-1,-1,-1,-1,-1,-1,-1,-1,-1],"loss_changes":[7.6783695E0,4.244149E0,1.0687812E1,9.42225E0,9.382753E0,1.022075E1,6.5131826E0,5.1385064E0,7.528253E0,2.3019829E0,6.161745E0,5.1143217E0,1.1266058E1,1.9681206E0,3.6043878E0,0E0,0E0,0E0,0E0,0E0,0E0,0E0,0E0,0E0,0E0,0E0,0E0,0E0,0E0,0E0,0E0],"parents":[2147483647,0,0,1,1,2,2,3,3,4,4,5,5,6,6,7,7,8,8,9,9,10,10,11,11,12,12,13,13,14,14],"right_children":[2,4,6,8,10,12,14,16,18,20,22,24,26,28,30,-1,-1,-1,-1,-1,-1,-1,-1,-1,-1,-1,-1,-1,-1,-1,-1],"split_conditions":[1E0,8.3333336E-2,1E1,5E0,4E0,2E0,9.52381E-2,1E0,1.1764706E-1,1.1E1,2.2E1,2E0,3E0,1E0,5.294118E-1,9.379214E-3,-7.3520886E-3,-3.0025333E-2,-3.281282E-3,-9.183275E-3,2.9192103E-2,1.31189795E-2,1.2876295E-1,-2.7158977E-3,7.4876356E-3,-5.8796015E-3,-6.1710097E-2,-6.904042E-2,-1.0645836E-2,-1.5629321E-2,8.994058E-2],"split_indices":[8,4,3,3,3,9,5,13,5,1,3,8,1,13,4,0,0,0,0,0,0,0,0,0,0,0,0,0,0,0,0],"split_type":[0,0,0,0,0,0,0,0,0,0,0,0,0,0,0,0,0,0,0,0,0,0,0,0,0,0,0,0,0,0,0],"sum_hessian":[5.5935645E3,2.7954321E3,2.798132E3,1.656783E3,1.1386492E3,2.411433E3,3.866991E2,1.1037725E3,5.530105E2,2.9068216E2,8.4796704E2,2.2542236E3,1.5720952E2,3.7891445E1,3.4880765E2,8.721551E2,2.3161737E2,1.4044395E2,4.1256653E2,2.7507504E2,1.5607111E1,8.4432E2,3.646982E0,1.5324508E3,7.2177277E2,1.0203368E2,5.5175842E1,3.0316713E1,7.574733E0,3.4652353E2,2.2841172E0],"tree_param":{"num_deleted":"0","num_feature":"14","num_nodes":"31","size_leaf_vector":"1"}},{"base_weights":[-3.713461E-4,-1.4246477E-2,1.0533603E-1,8.481957E-2,-3.3780497E-2,2.330919E-1,4.027614E-2,1.6715978E-1,-7.566453E-3,-1.0852321E-1,-2.3335407E-3,1.680957E-1,4.283103E-1,1.1351384E-1,-8.214697E-2,2.7381007E-2,7.5261006E-3,-7.230576E-3,1.6800534E-2,-8.041336E-3,-3.9221432E-2,4.57389E-3,-9.283702E-3,3.801695E-2,9.612847E-3,5.2305054E-2,-5.235096E-3,-8.793339E-3,1.9419385E-2,-1.3024022E-2,4.0246405E-2],"categories":[],"categories_nodes":[],"categories_segments":[],"categories_sizes":[],"default_left":[0,0,0,0,0,0,0,0,0,0,0,0,0,0,0,0,0,0,0,0,0,0,0,0,0,0,0,0,0,0,0],"id":40,"left_children":[1,3,5,7,9,11,13,15,17,19,21,23,25,27,29,-1,-1,-1,-1,-1,-1,-1,-1,-1,-1,-1,-1,-1,-1,-1,-1],"loss_changes":[8.2194805E0,9.589232E0,5.39524E0,6.210155E0,9.72722E0,2.709238E0,3.8830159E0,4.2095785E0,4.3949437E0,9.741854E0,1.2682307E1,2.4983792E0,2.4911737E0,4.41743E0,3.8350153E0,0E0,0E0,0E0,0E0,0E0,0E0,0E0,0E0,0E0,0E0,0E0,0E0,0E0,0E0,0E0,0E0],"parents":[2147483647,0,0,1,1,2,2,3,3,4,4,5,5,6,6,7,7,8,8,9,9,10,10,11,11,12,12,13,13,14,14],"right_children":[2,4,6,8,10,12,14,16,18,20,22,24,26,28,30,-1,-1,-1,-1,-1,-1,-1,-1,-1,-1,-1,-1,-1,-1,-1,-1],"split_conditions":[4.6153846E-1,1E0,7E-1,8E0,1.6666667E-1,9E0,7E0,5E0,8E0,1.1E1,3E1,3E0,9E0,8E0,7E0,2.7381007E-2,7.5261006E-3,-7.230576E-3,1.6800534E-2,-8.041336E-3,-3.9221432E-2,4.57389E-3,-9.283702E-3,3.801695E-2,9.612847E-3,5.2305054E-2,-5.235096E-3,-8.793339E-3,1.9419385E-2,-1.3024022E-2,4.0246405E-2],"split_indices":[4,3,5,12,5,12,0,0,0,3,11,12,0,11,3,0,0,0,0,0,0,0,0,0,0,0,0,0,0,0,0],"split_type":[0,0,0,0,0,0,0,0,0,0,0,0,0,0,0,0,0,0,0,0,0,0,0,0,0,0,0,0,0,0,0],"sum_hessian":[5.6020264E3,4.9527896E3,6.4923694E2,8.1519855E2,4.137591E3,2.1819406E2,4.310429E2,4.306061E2,3.8459244E2,1.2245782E3,2.9130127E3,1.6508992E2,5.310414E1,2.69745E2,1.6129791E2,1.9839056E2,2.3221555E2,2.8141376E2,1.0317868E2,1.1153463E3,1.092319E2,1.9028021E3,1.0102106E3,4.074363E1,1.243463E2,4.428684E1,8.817302E0,7.7113335E1,1.9263165E2,1.4740096E2,1.3896956E1],"tree_param":{"num_deleted":"0","num_feature":"14","num_nodes":"31","size_leaf_vector":"1"}},{"base_weights":[-5.140458E-3,7.309672E-2,-1.8504769E-2,-3.545869E-3,1.413507E-1,-1.105819E-1,8.76254E-3,-2.446181E-1,5.5134136E-2,3.254622E-1,2.7321672E-2,-7.2003104E-2,-3.364986E-1,-3.235986E-2,5.341598E-2,-1.9440241E-2,-7.9113506E-2,-6.2141348E-2,7.262843E-3,6.996758E-2,2.1723846E-2,8.689302E-3,-1.9203663E-2,1.2331323E-2,-1.0266392E-2,-3.982019E-2,1.2987265E-2,7.2207423E-3,-5.7815574E-3,6.5501104E-3,-1.5966844E-2],"categories":[],"categories_nodes":[],"categories_segments":[],"categories_sizes":[],"default_left":[0,0,0,0,0,0,0,0,0,0,0,0,0,0,0,0,0,0,0,0,0,0,0,0,0,0,0,0,0,0,0],"id":41,"left_children":[1,3,5,7,9,11,13,15,17,19,21,23,25,27,29,-1,-1,-1,-1,-1,-1,-1,-1,-1,-1,-1,-1,-1,-1,-1,-1],"loss_changes":[5.869842E0,4.285157E0,1.203867E1,5.485179E0,9.0871105E0,9.523845E0,6.7959747E0,1.9292951E0,3.7366228E0,6.5553493E0,3.5272274E0,5.623928E0,4.6420975E0,5.1330156E0,4.5794077E0,0E0,0E0,0E0,0E0,0E0,0E0,0E0,0E0,0E0,0E0,0E0,0E0,0E0,0E0,0E0,0E0],"parents":[2147483647,0,0,1,1,2,2,3,3,4,4,5,5,6,6,7,7,8,8,9,9,10,10,11,11,12,12,13,13,14,14],"right_children":[2,4,6,8,10,12,14,16,18,20,22,24,26,28,30,-1,-1,-1,-1,-1,-1,-1,-1,-1,-1,-1,-1,-1,-1,-1,-1],"split_conditions":[1E0,2E0,1.25E-1,3E0,4E0,8E0,8E0,2.148E3,1.64E3,4E0,1E0,1E0,8.3333336E-2,3E0,1.7E1,-1.9440241E-2,-7.9113506E-2,-6.2141348E-2,7.262843E-3,6.996758E-2,2.1723846E-2,8.689302E-3,-1.9203663E-2,1.2331323E-2,-1.0266392E-2,-3.982019E-2,1.2987265E-2,7.2207423E-3,-5.7815574E-3,6.5501104E-3,-1.5966844E-2],"split_indices":[3,10,5,0,0,3,12,2,2,12,13,9,4,12,3,0,0,0,0,0,0,0,0,0,0,0,0,0,0,0,0],"split_type":[0,0,0,0,0,0,0,0,0,0,0,0,0,0,0,0,0,0,0,0,0,0,0,0,0,0,0,0,0,0,0],"sum_hessian":[5.6116323E3,8.1806384E2,4.7935684E3,3.857981E2,4.3226572E2,1.094516E3,3.6990525E3,7.490418E1,3.1089392E2,1.6461838E2,2.6764734E2,9.3599835E2,1.5851758E2,1.9258069E3,1.7732455E3,6.984254E1,5.06164E0,6.9663687E0,3.0392755E2,3.570238E1,1.28916E2,2.1096048E2,5.6686863E1,1.2658722E2,8.0941113E2,1.4012456E2,1.8393023E1,3.766721E2,1.5491349E3,1.6787288E3,9.451678E1],"tree_param":{"num_deleted":"0","num_feature":"14","num_nodes":"31","size_leaf_vector":"1"}},{"base_weights":[-6.140041E-3,1.7254028E-2,-5.3628314E-2,-4.671765E-2,5.7071663E-2,-6.262738E-4,-1.5334918E-1,-3.0412113E-2,-3.1832728E-1,3.6856942E-2,1.8070173E-1,5.4313015E-2,-4.7173742E-2,-2.6038677E-1,4.7520097E-2,-2.0799462E-3,-3.952715E-2,-1.5610068E-2,-4.8537366E-2,9.194466E-3,-5.340626E-3,2.0512387E-2,-3.8943898E-2,2.4971291E-2,1.4239883E-4,-1.0400741E-2,2.8325486E-4,-3.94645E-2,-1.1110866E-2,-8.935157E-3,3.2989334E-2],"categories":[],"categories_nodes":[],"categories_segments":[],"categories_sizes":[],"default_left":[0,0,0,0,0,0,0,0,0,0,0,0,0,0,0,0,0,0,0,0,0,0,0,0,0,0,0,0,0,0,0],"id":42,"left_children":[1,3,5,7,9,11,13,15,17,19,21,23,25,27,29,-1,-1,-1,-1,-1,-1,-1,-1,-1,-1,-1,-1,-1,-1,-1,-1],"loss_changes":[6.2165303E0,9.5523815E0,9.760916E0,6.3626204E0,5.7694945E0,3.088866E0,1.3792455E1,4.7562966E0,2.1296082E0,9.888554E0,4.598897E0,5.7249765E0,1.858609E0,8.339031E0,8.673208E0,0E0,0E0,0E0,0E0,0E0,0E0,0E0,0E0,0E0,0E0,0E0,0E0,0E0,0E0,0E0,0E0],"parents":[2147483647,0,0,1,1,2,2,3,3,4,4,5,5,6,6,7,7,8,8,9,9,10,10,11,11,12,12,13,13,14,14],"right_children":[2,4,6,8,10,12,14,16,18,20,22,24,26,28,30,-1,-1,-1,-1,-1,-1,-1,-1,-1,-1,-1,-1,-1,-1,-1,-1],"split_conditions":[3.1E1,1.6666667E-1,6E0,1.1E1,2E0,1E0,3.7E1,1.3E1,5E0,1E0,1.3E1,1E0,2.6086956E-1,1E1,4.7619048E-1,-2.0799462E-3,-3.952715E-2,-1.5610068E-2,-4.8537366E-2,9.194466E-3,-5.340626E-3,2.0512387E-2,-3.8943898E-2,2.4971291E-2,1.4239883E-4,-1.0400741E-2,2.8325486E-4,-3.94645E-2,-1.1110866E-2,-8.935157E-3,3.2989334E-2],"split_indices":[11,5,3,3,8,8,11,0,1,8,3,3,5,12,5,0,0,0,0,0,0,0,0,0,0,0,0,0,0,0,0],"split_type":[0,0,0,0,0,0,0,0,0,0,0,0,0,0,0,0,0,0,0,0,0,0,0,0,0,0,0,0,0,0,0],"sum_hessian":[5.5938867E3,3.748102E3,1.8457847E3,1.4378518E3,2.3102502E3,1.2058674E3,6.399172E2,1.3574707E3,8.0381065E1,1.986703E3,3.2354718E2,5.5300134E2,6.528661E2,4.172696E2,2.2264758E2,1.3236545E3,3.3816227E1,4.176022E1,3.8620842E1,1.2337347E3,7.529682E2,3.1087115E2,1.2676032E1,1.17004326E2,4.35997E2,3.0506763E2,3.477985E2,2.1882152E2,1.9844809E2,1.504198E2,7.2227776E1],"tree_param":{"num_deleted":"0","num_feature":"14","num_nodes":"31","size_leaf_vector":"1"}},{"base_weights":[6.594707E-4,3.2753132E-2,-3.218766E-2,6.190379E-3,8.265352E-2,-5.766039E-2,1.4371899E-1,-2.4738348E-1,3.2280367E-2,1.5398951E-1,-7.986143E-3,-9.191182E-2,2.902338E-2,2.2778235E-1,-2.6254082E-2,-3.7163E-2,2.0530803E-2,1.2450195E-2,-4.264934E-3,-2.8876795E-2,1.8527519E-2,-1.6049106E-2,1.5496944E-2,-1.2170433E-2,1.9438247E-3,4.670474E-3,-4.437394E-2,1.9276679E-2,9.082162E-2,1.785847E-2,-1.8182296E-2],"categories":[],"categories_nodes":[],"categories_segments":[],"categories_sizes":[],"default_left":[0,0,0,0,0,0,0,0,0,0,0,0,0,0,0,0,0,0,0,0,0,0,0,0,0,0,0,0,0,0,0],"id":43,"left_children":[1,3,5,7,9,11,13,15,17,19,21,23,25,27,29,-1,-1,-1,-1,-1,-1,-1,-1,-1,-1,-1,-1,-1,-1,-1,-1],"loss_changes":[5.89132E0,3.7462077E0,1.238362E1,1.2219195E1,6.3499513E0,7.167588E0,5.0017505E0,9.767896E0,1.1576143E1,7.665139E0,1.0795104E1,5.7413864E0,5.7402835E0,5.401127E0,3.7479415E0,0E0,0E0,0E0,0E0,0E0,0E0,0E0,0E0,0E0,0E0,0E0,0E0,0E0,0E0,0E0,0E0],"parents":[2147483647,0,0,1,1,2,2,3,3,4,4,5,5,6,6,7,7,8,8,9,9,10,10,11,11,12,12,13,13,14,14],"right_children":[2,4,6,8,10,12,14,16,18,20,22,24,26,28,30,-1,-1,-1,-1,-1,-1,-1,-1,-1,-1,-1,-1,-1,-1,-1,-1],"split_conditions":[1E0,3E0,8.5714287E-1,2E0,4E0,2E0,9.0909094E-1,1E0,6E0,1E0,6E0,1E0,1.3E1,7.1428573E-1,1.3E1,-3.7163E-2,2.0530803E-2,1.2450195E-2,-4.264934E-3,-2.8876795E-2,1.8527519E-2,-1.6049106E-2,1.5496944E-2,-1.2170433E-2,1.9438247E-3,4.670474E-3,-4.437394E-2,1.9276679E-2,9.082162E-2,1.785847E-2,-1.8182296E-2],"split_indices":[8,10,5,1,1,8,4,13,1,11,1,13,3,4,11,0,0,0,0,0,0,0,0,0,0,0,0,0,0,0,0],"split_type":[0,0,0,0,0,0,0,0,0,0,0,0,0,0,0,0,0,0,0,0,0,0,0,0,0,0,0,0,0,0,0],"sum_hessian":[5.5865083E3,2.8256638E3,2.7608442E3,1.8447819E3,9.808821E2,2.4122087E3,3.4863544E2,1.7130937E2,1.6734724E3,5.484989E2,4.3238315E2,1.7289764E3,6.8323236E2,2.3304068E2,1.1559474E2,1.3455754E2,3.675183E1,7.498789E2,9.2359357E2,3.5656403E1,5.128425E2,2.2336145E2,2.0902171E2,1.3639491E3,3.6502728E2,6.5946936E2,2.3762987E1,2.2285568E2,1.0185004E1,4.983226E1,6.576248E1],"tree_param":{"num_deleted":"0","num_feature":"14","num_nodes":"31","size_leaf_vector":"1"}},{"base_weights":[2.2098282E-3,-3.5108007E-2,2.6017167E-2,-2.9434485E-2,-6.109777E-1,8.089495E-2,-4.285834E-2,-9.066243E-2,6.3005993E-3,-7.467217E-1,2.7585858E-1,2.2291999E-1,4.9361337E-2,-7.886688E-2,5.1249508E-2,-1.2374842E-2,9.27721E-3,7.7356705E-3,-4.0135956E-3,-9.431725E-2,-4.9343094E-2,6.2738344E-2,-1.9932283E-2,3.4376368E-2,-3.078045E-3,-2.771733E-3,1.1106995E-2,-1.0142455E-2,9.893575E-3,1.2677088E-2,-9.935645E-3],"categories":[],"categories_nodes":[],"categories_segments":[],"categories_sizes":[],"default_left":[0,0,1,0,0,0,0,0,0,0,0,0,0,0,0,0,0,0,0,0,0,0,0,0,0,0,0,0,0,0,0],"id":44,"left_children":[1,3,5,7,9,11,13,15,17,19,21,23,25,27,29,-1,-1,-1,-1,-1,-1,-1,-1,-1,-1,-1,-1,-1,-1,-1,-1],"loss_changes":[4.96985E0,7.100518E0,1.2911702E1,4.723483E0,2.758757E0,8.502951E0,5.138139E0,4.8400083E0,4.5036807E0,4.631281E-1,7.1723187E-1,1.0591116E1,7.408499E0,4.406615E0,4.7883897E0,0E0,0E0,0E0,0E0,0E0,0E0,0E0,0E0,0E0,0E0,0E0,0E0,0E0,0E0,0E0,0E0],"parents":[2147483647,0,0,1,1,2,2,3,3,4,4,5,5,6,6,7,7,8,8,9,9,10,10,11,11,12,12,13,13,14,14],"right_children":[2,4,6,8,10,12,14,16,18,20,22,24,26,28,30,-1,-1,-1,-1,-1,-1,-1,-1,-1,-1,-1,-1,-1,-1,-1,-1],"split_conditions":[4E0,1.9E1,7E0,9E0,4.7619048E-1,1E0,1.1E1,7E0,3E0,5.263158E-2,2.1E1,6E0,2.5E-1,8.5714287E-1,1.2E1,-1.2374842E-2,9.27721E-3,7.7356705E-3,-4.0135956E-3,-9.431725E-2,-4.9343094E-2,6.2738344E-2,-1.9932283E-2,3.4376368E-2,-3.078045E-3,-2.771733E-3,1.1106995E-2,-1.0142455E-2,9.893575E-3,1.2677088E-2,-9.935645E-3],"split_indices":[1,3,1,11,5,9,0,0,3,4,3,1,5,5,1,0,0,0,0,0,0,0,0,0,0,0,0,0,0,0,0],"split_type":[0,0,0,0,0,0,0,0,0,0,0,0,0,0,0,0,0,0,0,0,0,0,0,0,0,0,0,0,0,0,0],"sum_hessian":[5.5918887E3,2.1777717E3,3.4141167E3,2.1575664E3,2.020543E1,1.9000464E3,1.5140702E3,7.945904E2,1.3629761E3,1.766025E1,2.54518E0,3.4411383E2,1.5559326E3,1.095182E3,4.1888815E2,6.7344653E2,1.2114381E2,5.3842505E2,8.24551E2,8.412156E0,9.248093E0,1.2788343E0,1.2663459E0,2.3284778E2,1.1126605E2,6.92055E2,8.638776E2,9.722616E2,1.2292042E2,2.7909448E2,1.3979369E2],"tree_param":{"num_deleted":"0","num_feature":"14","num_nodes":"31","size_leaf_vector":"1"}},{"base_weights":[-5.4366267E-3,3.8478484E-3,-1.20313324E-1,-1.2290921E-2,5.355415E-2,-3.3984244E-1,-6.474841E-2,7.400533E-3,-6.31965E-2,4.6237294E-2,6.257835E-1,-4.7047138E-1,1.6771172E-1,3.6978133E-2,-1.8994954E-1,1.6513133E-2,-2.0073277E-3,7.961924E-3,-1.2537E-2,-4.0242462E-3,9.862836E-3,1.4637218E-1,2.3054121E-2,-5.6981843E-2,2.5339583E-2,1.0650843E-1,-4.7494624E-2,1.49730025E-2,-2.460866E-2,-3.8835745E-2,-5.2104904E-3],"categories":[],"categories_nodes":[],"categories_segments":[],"categories_sizes":[],"default_left":[0,0,0,0,0,0,0,0,0,0,0,0,0,0,0,0,0,0,0,0,0,0,0,0,0,0,0,0,0,0,0],"id":45,"left_children":[1,3,5,7,9,11,13,15,17,19,21,23,25,27,29,-1,-1,-1,-1,-1,-1,-1,-1,-1,-1,-1,-1,-1,-1,-1,-1],"loss_changes":[5.947157E0,4.1396627E0,5.064073E0,3.9056027E0,5.266725E0,5.6471186E0,4.260589E0,1.2180462E1,9.65954E0,5.6670713E0,4.9246883E0,4.966649E0,1.0844825E1,5.9444227E0,4.078771E0,0E0,0E0,0E0,0E0,0E0,0E0,0E0,0E0,0E0,0E0,0E0,0E0,0E0,0E0,0E0,0E0],"parents":[2147483647,0,0,1,1,2,2,3,3,4,4,5,5,6,6,7,7,8,8,9,9,10,10,11,11,12,12,13,13,14,14],"right_children":[2,4,6,8,10,12,14,16,18,20,22,24,26,28,30,-1,-1,-1,-1,-1,-1,-1,-1,-1,-1,-1,-1,-1,-1,-1,-1],"split_conditions":[2.62E3,5.5E-1,3E0,3.4E1,1.5E1,3.6842105E-1,6E0,1E0,2E0,4E0,4E0,3.7E1,1.2E1,3.5E1,3.7037036E-1,1.6513133E-2,-2.0073277E-3,7.961924E-3,-1.2537E-2,-4.0242462E-3,9.862836E-3,1.4637218E-1,2.3054121E-2,-5.6981843E-2,2.5339583E-2,1.0650843E-1,-4.7494624E-2,1.49730025E-2,-2.460866E-2,-3.8835745E-2,-5.2104904E-3],"split_indices":[2,5,0,11,3,4,3,9,3,1,0,11,11,11,5,0,0,0,0,0,0,0,0,0,0,0,0,0,0,0,0],"split_type":[0,0,0,0,0,0,0,0,0,0,0,0,0,0,0,0,0,0,0,0,0,0,0,0,0,0,0,0,0,0,0],"sum_hessian":[5.5745317E3,5.158576E3,4.159559E2,3.894766E3,1.2638099E3,8.298354E1,3.3297235E2,2.809025E3,1.0857411E3,1.2489213E3,1.4888638E1,6.605585E1,1.6927696E1,1.8409715E2,1.488752E2,4.1595596E2,2.393069E3,3.2922156E2,7.565196E2,4.7126147E2,7.776598E2,3.9054613E0,1.0983176E1,5.8271236E1,7.7846136E0,6.7896657E0,1.013803E1,1.3199231E2,5.2104855E1,6.0285446E1,8.858976E1],"tree_param":{"num_deleted":"0","num_feature":"14","num_nodes":"31","size_leaf_vector":"1"}},{"base_weights":[-2.008492E-3,1.7347543E-2,-4.460347E-2,7.3717562E-3,1.4457229E-1,-1.5302292E-1,-1.4484448E-3,-3.462597E-2,3.556566E-2,4.1361466E-1,-2.8127634E-3,2.364666E-1,-2.0845348E-1,9.146727E-2,-4.4222634E-2,-1.5530543E-2,6.0077845E-3,6.571346E-3,-5.701776E-3,2.703843E-2,7.817112E-2,-7.683217E-3,5.518418E-2,3.219721E-2,-2.4822226E-2,-5.367125E-3,-2.997309E-2,-3.1745378E-3,3.3294678E-2,8.882765E-4,-1.6016476E-2],"categories":[],"categories_nodes":[],"categories_segments":[],"categories_sizes":[],"default_left":[0,0,0,0,0,0,0,0,0,0,0,0,0,0,0,0,0,0,0,0,0,0,0,0,0,0,0,0,0,0,0],"id":46,"left_children":[1,3,5,7,9,11,13,15,17,19,21,23,25,27,29,-1,-1,-1,-1,-1,-1,-1,-1,-1,-1,-1,-1,-1,-1,-1,-1],"loss_changes":[4.6008444E0,4.8686085E0,8.157446E0,4.2153482E0,1.1061364E1,1.07662E1,4.9646072E0,1.6353025E1,5.9487963E0,4.993742E0,7.4815874E0,2.6623385E0,6.1307755E0,1.1726841E1,5.2679443E0,0E0,0E0,0E0,0E0,0E0,0E0,0E0,0E0,0E0,0E0,0E0,0E0,0E0,0E0,0E0,0E0],"parents":[2147483647,0,0,1,1,2,2,3,3,4,4,5,5,6,6,7,7,8,8,9,9,10,10,11,11,12,12,13,13,14,14],"right_children":[2,4,6,8,10,12,14,16,18,20,22,24,26,28,30,-1,-1,-1,-1,-1,-1,-1,-1,-1,-1,-1,-1,-1,-1,-1,-1],"split_conditions":[3.4E1,2.2E1,3.5E1,4E0,4E0,1E0,4E0,1E0,1E1,3E0,1E1,1E0,1E0,1E0,1E0,-1.5530543E-2,6.0077845E-3,6.571346E-3,-5.701776E-3,2.703843E-2,7.817112E-2,-7.683217E-3,5.518418E-2,3.219721E-2,-2.4822226E-2,-5.367125E-3,-2.997309E-2,-3.1745378E-3,3.3294678E-2,8.882765E-4,-1.6016476E-2],"split_indices":[11,11,11,1,0,3,0,10,0,10,3,13,6,10,10,0,0,0,0,0,0,0,0,0,0,0,0,0,0,0,0],"split_type":[0,0,0,0,0,0,0,0,0,0,0,0,0,0,0,0,0,0,0,0,0,0,0,0,0,0,0,0,0,0,0],